{"learner":{"attributes":{"scikit_learn":"{\"_estimator_type\": \"classifier\"}"},"feature_names":["Time","V1","V2","V3","V4","V5","V6","V7","V8","V9","V10","V11","V12","V13","V14","V15","V16","V17","V18","V19","V20","V21","V22","V23","V24","V25","V26","V27","V28","Amount","anomaly_score","lstm_error","gnn_pred"],"feature_types":["float","float","float","float","float","float","float","float","float","float","float","float","float","float","float","float","float","float","float","float","float","float","float","float","float","float","float","float","float","float","float","float","int"],"gradient_booster":{"model":{"gbtree_model_param":{"num_parallel_tree":"1","num_trees":"200"},"iteration_indptr":[0,1,2,3,4,5,6,7,8,9,10,11,12,13,14,15,16,17,18,19,20,21,22,23,24,25,26,27,28,29,30,31,32,33,34,35,36,37,38,39,40,41,42,43,44,45,46,47,48,49,50,51,52,53,54,55,56,57,58,59,60,61,62,63,64,65,66,67,68,69,70,71,72,73,74,75,76,77,78,79,80,81,82,83,84,85,86,87,88,89,90,91,92,93,94,95,96,97,98,99,100,101,102,103,104,105,106,107,108,109,110,111,112,113,114,115,116,117,118,119,120,121,122,123,124,125,126,127,128,129,130,131,132,133,134,135,136,137,138,139,140,141,142,143,144,145,146,147,148,149,150,151,152,153,154,155,156,157,158,159,160,161,162,163,164,165,166,167,168,169,170,171,172,173,174,175,176,177,178,179,180,181,182,183,184,185,186,187,188,189,190,191,192,193,194,195,196,197,198,199,200],"tree_info":[0,0,0,0,0,0,0,0,0,0,0,0,0,0,0,0,0,0,0,0,0,0,0,0,0,0,0,0,0,0,0,0,0,0,0,0,0,0,0,0,0,0,0,0,0,0,0,0,0,0,0,0,0,0,0,0,0,0,0,0,0,0,0,0,0,0,0,0,0,0,0,0,0,0,0,0,0,0,0,0,0,0,0,0,0,0,0,0,0,0,0,0,0,0,0,0,0,0,0,0,0,0,0,0,0,0,0,0,0,0,0,0,0,0,0,0,0,0,0,0,0,0,0,0,0,0,0,0,0,0,0,0,0,0,0,0,0,0,0,0,0,0,0,0,0,0,0,0,0,0,0,0,0,0,0,0,0,0,0,0,0,0,0,0,0,0,0,0,0,0,0,0,0,0,0,0,0,0,0,0,0,0,0,0,0,0,0,0,0,0,0,0,0,0,0,0,0,0,0,0],"trees":[{"base_weights":[3.7567855E-9,1.8677425E0,-1.5291424E0,-1.1748894E0,1.9100101E0,-1.7436994E0,-1.5908578E-1,-1.9962424E-1,1.391178E0,1.9940448E0,1.113529E0,5.689281E-2,-1.8015854E0,9.9632746E-1,-8.879444E-1,-1.9183674E-1,1.9321214E0,1.9954444E0,-1.882353E-1,1.3045855E0,-1.9928508E-1,1.086319E0,-1.9964476E-1,-1.8321171E0,1.9277513E-1,1.3660388E0,-9.117731E-1,7.158029E-2,-1.609746E0,-1.3333334E-1,1.9862375E-1,1.9963416E-1,-1.8222223E-1,1.6071817E-1,-3.5279572E-2,-1.9877489E-1,1.6075698E-1,-1.293784E-1,-1.9102551E-1,1.580765E-1,-1.993496E-1,1.75866E-1,3.165548E-2,-1.9947334E-1,1.7720935E-1,7.958176E-2,-1.9965443E-1,-3.7535563E-2,-1.9991122E-1],"categories":[],"categories_nodes":[],"categories_segments":[],"categories_sizes":[],"default_left":[0,0,0,0,0,0,0,0,0,0,0,0,0,0,0,0,0,0,0,0,0,0,0,0,0,0,0,0,0,0,0,0,0,0,0,0,0,0,0,0,0,0,0,0,0,0,0,0,0],"id":0,"left_children":[1,3,5,7,9,11,13,-1,15,17,19,21,23,25,27,-1,29,31,-1,33,-1,35,-1,37,39,41,43,45,47,-1,-1,-1,-1,-1,-1,-1,-1,-1,-1,-1,-1,-1,-1,-1,-1,-1,-1,-1,-1],"loss_changes":[3.2481075E5,6.5862188E3,1.8381312E4,1.4824966E3,3.3774844E3,5.63525E3,7.132012E3,0E0,3.0952457E2,2.5157812E2,2.8640518E3,3.5637107E3,3.1899062E3,2.312266E3,3.5966938E3,0E0,2.8682068E1,1.6001562E2,0E0,2.2787676E3,0E0,1.8025339E3,0E0,2.1676875E3,2.4025933E3,1.130374E3,1.550739E3,3.3421968E3,1.423665E3,0E0,0E0,0E0,0E0,0E0,0E0,0E0,0E0,0E0,0E0,0E0,0E0,0E0,0E0,0E0,0E0,0E0,0E0,0E0,0E0],"parents":[2147483647,0,0,1,1,2,2,3,3,4,4,5,5,6,6,8,8,9,9,10,10,11,11,12,12,13,13,14,14,16,16,17,17,19,19,21,21,23,23,24,24,25,25,26,26,27,27,28,28],"right_children":[2,4,6,8,10,12,14,-1,16,18,20,22,24,26,28,-1,30,32,-1,34,-1,36,-1,38,40,42,44,46,48,-1,-1,-1,-1,-1,-1,-1,-1,-1,-1,-1,-1,-1,-1,-1,-1,-1,-1,-1,-1],"split_conditions":[-1.7859976E0,-4.8604634E-1,1.620582E0,1.66793E5,-1.4160796E0,-9.853448E-1,-2.201951E-1,-1.9962424E-1,6.752227E-1,5.767415E-1,4.7627756E-1,-7.4986964E-2,2.4990346E0,3.6880842E-1,1.06149286E-1,-1.9183674E-1,1.2725322E0,2.0917013E-1,-1.882353E-1,5.2214855E-1,-1.9928508E-1,3.127109E-2,-1.9964476E-1,-8.069166E-1,-5.366979E-1,-5.725717E-1,2.1755762E0,-4.3405853E-2,-6.861937E-1,-1.3333334E-1,1.9862375E-1,1.9963416E-1,-1.8222223E-1,1.6071817E-1,-3.5279572E-2,-1.9877489E-1,1.6075698E-1,-1.293784E-1,-1.9102551E-1,1.580765E-1,-1.993496E-1,1.75866E-1,3.165548E-2,-1.9947334E-1,1.7720935E-1,7.958176E-2,-1.9965443E-1,-3.7535563E-2,-1.9991122E-1],"split_indices":[14,4,4,0,12,20,8,0,31,10,26,12,7,13,6,0,11,30,0,15,0,28,0,14,26,12,17,12,18,0,0,0,0,0,0,0,0,0,0,0,0,0,0,0,0,0,0,0,0],"split_type":[0,0,0,0,0,0,0,0,0,0,0,0,0,0,0,0,0,0,0,0,0,0,0,0,0,0,0,0,0,0,0,0,0,0,0,0,0,0,0,0,0,0,0,0,0,0,0,0,0],"sum_hessian":[1.137255E5,5.1194594E4,6.2530906E4,7.010717E2,5.0493523E4,5.4063973E4,8.466936E3,5.3125E2,1.698217E2,4.5673156E4,4.8203643E3,1.6839302E3,5.238004E4,3.274969E3,5.191967E3,2.35E1,1.463217E2,4.5657156E4,1.6E1,4.5416143E3,2.7875E2,1.1219302E3,5.62E2,5.1590324E4,7.897151E2,2.7436472E3,5.313217E2,2.2293237E3,2.9626433E3,2E0,1.443217E2,4.5646906E4,1.025E1,3.8404707E3,7.0114343E2,1.6225E2,9.596802E2,6.5413237E3,4.5049E4,4.832151E2,3.065E2,1.9961821E3,7.474651E2,3.7875E2,1.525717E2,1.6515736E3,5.7775E2,7.1089343E2,2.25175E3],"tree_param":{"num_deleted":"0","num_feature":"33","num_nodes":"49","size_leaf_vector":"1"}},{"base_weights":[9.961404E-6,1.6976981E0,-1.3879398E0,-1.0687479E0,1.736116E0,-1.583176E0,-1.4420089E-1,-1.8155865E-1,1.2639046E0,1.7520695E0,-1.9145803E-1,5.1382564E-2,-1.6357517E0,9.026146E-1,-8.0435795E-1,-1.7502746E-1,1.7569573E0,1.7654063E0,-1.9965473E-1,9.846638E-1,-1.8157586E-1,-1.663491E0,1.7472391E-1,1.2368441E0,-8.2865506E-1,2.4255036E-1,-1.3584173E0,-1.2482635E-1,1.8072122E-1,1.8024616E-1,1.02876246E-1,-1.9520639E-1,1.4631782E-1,-1.1694851E-1,-1.7355494E-1,1.4322342E-1,-1.8132883E-1,-2.0686395E-1,1.3535585E-1,-1.8143241E-1,1.6089813E-1,1.2643518E-1,-1.18983865E-1,-3.7365928E-3,-1.8324596E-1],"categories":[],"categories_nodes":[],"categories_segments":[],"categories_sizes":[],"default_left":[0,0,0,0,0,0,0,0,0,0,0,0,0,0,0,0,0,0,0,0,0,0,0,0,0,0,0,0,0,0,0,0,0,0,0,0,0,0,0,0,0,0,0,0,0],"id":1,"left_children":[1,3,5,7,9,11,13,-1,15,17,-1,19,21,23,25,-1,27,29,-1,31,-1,33,35,37,39,41,43,-1,-1,-1,-1,-1,-1,-1,-1,-1,-1,-1,-1,-1,-1,-1,-1,-1,-1],"loss_changes":[2.6563666E5,5.3912656E3,1.5060945E4,1.2133717E3,2.9162812E3,4.6072188E3,5.8170747E3,0E0,2.545076E2,2.4931406E3,0E0,2.9146663E3,2.6087344E3,1.8847874E3,2.994565E3,0E0,2.4290558E1,1.3526562E3,0E0,1.5699594E3,0E0,1.8189844E3,1.9642643E3,1.0556812E3,1.2700743E3,2.6174485E3,2.1139248E3,0E0,0E0,0E0,0E0,0E0,0E0,0E0,0E0,0E0,0E0,0E0,0E0,0E0,0E0,0E0,0E0,0E0,0E0],"parents":[2147483647,0,0,1,1,2,2,3,3,4,4,5,5,6,6,8,8,9,9,11,11,12,12,13,13,14,14,16,16,17,17,19,19,21,21,22,22,23,23,24,24,25,25,26,26],"right_children":[2,4,6,8,10,12,14,-1,16,18,-1,20,22,24,26,-1,28,30,-1,32,-1,34,36,38,40,42,44,-1,-1,-1,-1,-1,-1,-1,-1,-1,-1,-1,-1,-1,-1,-1,-1,-1,-1],"split_conditions":[-1.7859976E0,-4.8604634E-1,1.620582E0,1.66793E5,1.9941158E0,-9.853448E-1,-2.201951E-1,-1.8155865E-1,6.752227E-1,5.767415E-1,-1.9145803E-1,-7.4986964E-2,2.4990346E0,3.6880842E-1,-9.190497E-2,-1.7502746E-1,1.2725322E0,2.144214E-1,-1.9965473E-1,-2.1592973E-1,-1.8157586E-1,-8.069166E-1,-5.366979E-1,2.0676379E-1,2.1755762E0,-1.3017312E-1,-6.861937E-1,-1.2482635E-1,1.8072122E-1,1.8024616E-1,1.02876246E-1,-1.9520639E-1,1.4631782E-1,-1.1694851E-1,-1.7355494E-1,1.4322342E-1,-1.8132883E-1,-2.0686395E-1,1.3535585E-1,-1.8143241E-1,1.6089813E-1,1.2643518E-1,-1.18983865E-1,-3.7365928E-3,-1.8324596E-1],"split_indices":[14,4,4,0,1,20,8,0,31,10,0,12,7,13,6,0,11,30,0,4,0,14,26,31,17,10,18,0,0,0,0,0,0,0,0,0,0,0,0,0,0,0,0,0,0],"split_type":[0,0,0,0,0,0,0,0,0,0,0,0,0,0,0,0,0,0,0,0,0,0,0,0,0,0,0,0,0,0,0,0,0,0,0,0,0,0,0,0,0,0,0,0,0],"sum_hessian":[1.12732375E5,5.070801E4,6.202436E4,6.941763E2,5.0013836E4,5.3608832E4,8.415528E3,5.2599243E2,1.6818384E2,4.9796746E4,2.1708917E2,1.6706013E3,5.193823E4,3.2544917E3,5.1610366E3,2.3285112E1,1.4489873E2,4.9620734E4,1.7601201E2,1.1141644E3,5.564369E2,5.1154547E4,7.836839E2,2.7281042E3,5.263874E2,1.7863147E3,3.374722E3,1.9911375E0,1.429076E2,4.7242836E4,2.3778987E3,1.5567566E2,9.584887E2,6.514026E3,4.464052E4,4.8020895E2,3.0347495E2,9.247188E1,2.6356323E3,3.7500723E2,1.5138013E2,1.0426516E3,7.436631E2,8.914701E2,2.4832517E3],"tree_param":{"num_deleted":"0","num_feature":"33","num_nodes":"45","size_leaf_vector":"1"}},{"base_weights":[5.9458693E-5,1.5681894E0,-1.2773046E0,1.6756735E0,6.8549716E-1,-1.4817406E0,-2.5346333E-1,-1.6331078E-1,1.6781551E0,-7.848478E-2,1.5493587E0,-1.515901E0,2.618058E-1,6.973129E-1,-1.0168307E0,1.6793295E0,-1.5762208E-1,5.212484E-1,-1.947557E0,1.6243708E0,-2.0568037E-1,-1.562442E0,-4.4475126E-1,-1.7702566E0,1.087867E0,1.2547945E0,-4.189048E-1,-1.605983E0,3.672427E-3,1.680162E-1,-1.7447755E-1,1.1382029E-1,-1.8087451E-1,-1.6770153E-1,-2.0979431E-1,-1.9193457E-1,1.6654599E-1,-1.12833135E-1,-1.634961E-1,1.4885171E-1,-1.3624404E-1,-2.2063522E-1,-1.6904292E-1,1.5280113E-1,-1.6962105E-1,1.5025283E-1,-1.7833148E-1,9.921785E-2,-1.2494009E-1,-1.759362E-1,-4.224499E-2,-1.7782125E-1,6.6628575E-2],"categories":[],"categories_nodes":[],"categories_segments":[],"categories_sizes":[],"default_left":[0,0,0,0,0,0,0,0,0,0,0,0,0,0,0,0,0,0,0,0,0,0,0,0,0,0,0,0,0,0,0,0,0,0,0,0,0,0,0,0,0,0,0,0,0,0,0,0,0,0,0,0,0],"id":2,"left_children":[1,3,5,7,9,11,13,-1,15,17,19,21,23,25,27,29,-1,31,33,35,-1,37,39,41,43,45,47,49,51,-1,-1,-1,-1,-1,-1,-1,-1,-1,-1,-1,-1,-1,-1,-1,-1,-1,-1,-1,-1,-1,-1,-1,-1],"loss_changes":[2.2073416E5,4.692203E3,1.2710852E4,3.6482812E2,3.5451997E3,3.0153984E3,7.3377637E3,0E0,1.7107812E2,3.1974004E3,6.852925E2,2.4744062E3,1.6361958E3,2.8022986E3,3.3714375E3,1.2849219E2,0E0,3.1064802E3,2.4673584E1,3.628794E2,0E0,1.4960469E3,3.672332E3,6.0793457E0,8.515675E2,2.2628945E3,1.7596239E3,6.4461426E2,2.4256614E3,0E0,0E0,0E0,0E0,0E0,0E0,0E0,0E0,0E0,0E0,0E0,0E0,0E0,0E0,0E0,0E0,0E0,0E0,0E0,0E0,0E0,0E0,0E0,0E0],"parents":[2147483647,0,0,1,1,2,2,3,3,4,4,5,5,6,6,8,8,9,9,10,10,11,11,12,12,13,13,14,14,15,15,17,17,18,18,19,19,21,21,22,22,23,23,24,24,25,25,26,26,27,27,28,28],"right_children":[2,4,6,8,10,12,14,-1,16,18,20,22,24,26,28,30,-1,32,34,36,-1,38,40,42,44,46,48,50,52,-1,-1,-1,-1,-1,-1,-1,-1,-1,-1,-1,-1,-1,-1,-1,-1,-1,-1,-1,-1,-1,-1,-1,-1],"split_conditions":[-1.7859976E0,-1.4160796E0,1.3935225E0,-4.9830067E-1,1.8959074E0,2.4990346E0,-5.575814E-1,-1.6331078E-1,5.767415E-1,2.2414032E-2,2.0826507E-1,6.777285E-1,2.3208484E-1,2.7736297E-1,9.419254E-2,2.0917013E-1,-1.5762208E-1,-1.1814422E-1,-4.8604634E-1,5.4089034E-1,-2.0568037E-1,-7.287119E-1,-1.3385137E0,-5.366979E-1,-3.3360067E-1,1.2776982E0,-7.4005884E-1,1.2368379E0,1.3566162E-1,1.680162E-1,-1.7447755E-1,1.1382029E-1,-1.8087451E-1,-1.6770153E-1,-2.0979431E-1,-1.9193457E-1,1.6654599E-1,-1.12833135E-1,-1.634961E-1,1.4885171E-1,-1.3624404E-1,-2.2063522E-1,-1.6904292E-1,1.5280113E-1,-1.6962105E-1,1.5025283E-1,-1.7833148E-1,9.921785E-2,-1.2494009E-1,-1.759362E-1,-4.224499E-2,-1.7782125E-1,6.6628575E-2],"split_indices":[14,12,4,4,4,7,12,0,10,27,23,21,15,14,28,30,0,26,4,18,0,19,13,26,26,3,7,12,24,0,0,0,0,0,0,0,0,0,0,0,0,0,0,0,0,0,0,0,0,0,0,0,0],"split_type":[0,0,0,0,0,0,0,0,0,0,0,0,0,0,0,0,0,0,0,0,0,0,0,0,0,0,0,0,0,0,0,0,0,0,0,0,0,0,0,0,0,0,0,0,0,0,0,0,0,0,0,0,0],"sum_hessian":[1.10195766E5,4.9467625E4,6.0728145E4,4.409709E4,5.370536E3,5.0620105E4,1.0108038E4,3.2555035E1,4.4064535E4,2.8505105E3,2.5200254E3,4.964752E4,9.7258636E2,4.501497E3,5.606541E3,4.404912E4,1.5412942E1,2.1585977E3,6.919128E2,2.4692126E3,5.0812717E1,4.757974E4,2.06778E3,2.807687E2,6.918176E2,3.00204E3,1.4994572E3,3.554119E3,2.0524219E3,4.403892E4,1.019753E1,1.7070917E3,4.5150604E2,2.5154315E2,4.4036963E2,2.7778212E1,2.4414346E3,6.8129385E3,4.07668E4,6.653935E2,1.4023865E3,3.93209E1,2.4144781E2,5.97766E2,9.405166E1,2.7761707E3,2.2586934E2,5.554707E2,9.4398645E2,3.1459375E3,4.0818137E2,5.558796E2,1.4965424E3],"tree_param":{"num_deleted":"0","num_feature":"33","num_nodes":"53","size_leaf_vector":"1"}},{"base_weights":[1.56537E-4,1.4668691E0,-1.186689E0,1.5700103E0,6.324072E-1,-1.3793365E0,-2.3346137E-1,-1.5315011E-1,1.5723405E0,-7.213536E-2,1.4403899E0,-2.7921844E-2,-1.4203161E0,6.3925076E-1,-9.371593E-1,1.5734457E0,-1.4799915E-1,4.7736773E-1,-1.7808138E0,1.5109974E0,-1.8622415E-1,-1.6545992E0,1.1654555E0,-1.445348E0,1.7938718E-1,1.1537509E0,-3.8189995E-1,-1.4905874E0,2.6248354E-3,1.5742376E-1,-1.6095999E-1,1.0400281E-1,-1.6771245E-1,-1.5716365E-1,-1.8922184E-1,-2.0973042E-1,1.5483303E-1,-1.7909303E-1,-1.5934165E-1,-1.6209118E-1,1.5392916E-1,-1.1126387E-1,-1.5470508E-1,1.2312045E-1,-1.5819141E-1,1.3805515E-1,-1.6580386E-1,9.540494E-2,-1.1605462E-1,-1.6457108E-1,-3.3692893E-2,-1.6533516E-1,6.0058326E-2],"categories":[],"categories_nodes":[],"categories_segments":[],"categories_sizes":[],"default_left":[0,0,0,0,0,0,0,0,0,0,0,0,0,0,0,0,0,0,0,0,0,0,0,0,0,0,0,0,0,0,0,0,0,0,0,0,0,0,0,0,0,0,0,0,0,0,0,0,0,0,0,0,0],"id":3,"left_children":[1,3,5,7,9,11,13,-1,15,17,19,21,23,25,27,29,-1,31,33,35,-1,37,39,41,43,45,47,49,51,-1,-1,-1,-1,-1,-1,-1,-1,-1,-1,-1,-1,-1,-1,-1,-1,-1,-1,-1,-1,-1,-1,-1,-1],"loss_changes":[1.8560862E5,4.103547E3,1.0822375E4,3.09125E2,2.9874524E3,2.7150781E3,6.086311E3,0E0,1.4540625E2,2.6338691E3,5.7284766E2,2.8049338E3,1.9056875E3,2.3248086E3,2.8534995E3,1.0939844E2,0E0,2.5749685E3,1.2932861E1,3.2572266E2,0E0,2.24646E0,8.706835E2,1.5835859E3,1.36174E3,1.8785378E3,1.5437762E3,6.1738965E2,2.0154865E3,0E0,0E0,0E0,0E0,0E0,0E0,0E0,0E0,0E0,0E0,0E0,0E0,0E0,0E0,0E0,0E0,0E0,0E0,0E0,0E0,0E0,0E0,0E0,0E0],"parents":[2147483647,0,0,1,1,2,2,3,3,4,4,5,5,6,6,8,8,9,9,10,10,11,11,12,12,13,13,14,14,15,15,17,17,18,18,19,19,21,21,22,22,23,23,24,24,25,25,26,26,27,27,28,28],"right_children":[2,4,6,8,10,12,14,-1,16,18,20,22,24,26,28,30,-1,32,34,36,-1,38,40,42,44,46,48,50,52,-1,-1,-1,-1,-1,-1,-1,-1,-1,-1,-1,-1,-1,-1,-1,-1,-1,-1,-1,-1,-1,-1,-1,-1],"split_conditions":[-1.7859976E0,-1.4160796E0,1.3935225E0,-4.9830067E-1,1.8959074E0,-9.853448E-1,-5.575814E-1,-1.5315011E-1,5.767415E-1,2.2414032E-2,2.0826507E-1,-2.027623E0,2.4990346E0,2.7736297E-1,9.419254E-2,2.0917013E-1,-1.4799915E-1,-1.1814422E-1,-4.8604634E-1,-6.626826E-2,-1.8622415E-1,-8.292935E-2,-2.1592973E-1,-4.6571037E-1,-5.366979E-1,1.2776982E0,3.99E0,1.14688E0,1.3566162E-1,1.5742376E-1,-1.6095999E-1,1.0400281E-1,-1.6771245E-1,-1.5716365E-1,-1.8922184E-1,-2.0973042E-1,1.5483303E-1,-1.7909303E-1,-1.5934165E-1,-1.6209118E-1,1.5392916E-1,-1.1126387E-1,-1.5470508E-1,1.2312045E-1,-1.5819141E-1,1.3805515E-1,-1.6580386E-1,9.540494E-2,-1.1605462E-1,-1.6457108E-1,-3.3692893E-2,-1.6533516E-1,6.0058326E-2],"split_indices":[14,12,4,4,4,20,12,0,10,27,23,1,7,14,28,30,0,26,4,11,0,12,4,14,26,3,29,31,24,0,0,0,0,0,0,0,0,0,0,0,0,0,0,0,0,0,0,0,0,0,0,0,0],"split_type":[0,0,0,0,0,0,0,0,0,0,0,0,0,0,0,0,0,0,0,0,0,0,0,0,0,0,0,0,0,0,0,0,0,0,0,0,0,0,0,0,0,0,0,0,0,0,0,0,0,0,0,0,0],"sum_hessian":[1.0662297E5,4.7688695E4,5.8934277E4,4.2441902E4,5.246791E3,4.9025723E4,9.908553E3,3.1369736E1,4.2410535E4,2.8032937E3,2.4434976E3,1.4429254E3,4.7582797E4,4.4231465E3,5.4854062E3,4.2395668E4,1.4866307E1,2.121689E3,6.816047E2,2.392882E3,5.0615353E1,6.104468E2,8.324787E2,4.6849793E4,7.3300433E2,2.9411416E3,1.482005E3,3.4519856E3,2.0334207E3,4.238563E4,1.0039721E1,1.6827456E3,4.3894327E2,2.4211243E2,4.3949228E2,2.3939077E1,2.368943E3,1.8033717E2,4.301096E2,9.808338E1,7.3439526E2,1.0971059E4,3.5878734E4,4.5912445E2,2.7387988E2,2.7220857E3,2.1905602E2,5.4562787E2,9.3637714E2,3.0424631E3,4.095225E2,5.389888E2,1.4944319E3],"tree_param":{"num_deleted":"0","num_feature":"33","num_nodes":"53","size_leaf_vector":"1"}},{"base_weights":[2.5818165E-4,1.3856795E0,-1.1120759E0,1.4858109E0,5.884598E-1,-1.3927077E0,-5.0443697E-1,-1.4495318E-1,1.4880216E0,-6.719908E-2,1.352036E0,-1.464485E0,-7.9607E-1,4.464229E-1,-9.650307E-1,1.4890728E0,-1.4012787E-1,4.3960774E-1,-1.6541497E0,-1.7377204E-1,1.4195137E0,-4.157039E-1,-1.4879289E0,-1.3986831E0,6.909588E-1,1.4506654E0,-9.2852324E-2,1.3850474E-1,-1.2090149E0,1.4898328E-1,-1.5021698E-1,-1.0798929E-1,1.17395416E-1,-1.4876045E-1,-1.7397597E-1,-2.003982E-1,1.4598423E-1,-1.5497886E-1,1.0636572E-1,-1.5044689E-1,-6.4625563E-3,-1.352179E-2,-1.5338282E-1,1.4726415E-1,-1.5372905E-1,-1.6930836E-1,1.5369527E-1,-8.0573425E-2,8.1533186E-2,-1.5321128E-1,6.532326E-2,-1.3361269E-1,8.658037E-2],"categories":[],"categories_nodes":[],"categories_segments":[],"categories_sizes":[],"default_left":[0,0,0,0,0,0,0,0,0,0,0,0,0,0,0,0,0,0,0,0,0,0,0,0,0,0,0,0,0,0,0,0,0,0,0,0,0,0,0,0,0,0,0,0,0,0,0,0,0,0,0,0,0],"id":4,"left_children":[1,3,5,7,9,11,13,-1,15,17,19,21,23,25,27,29,-1,31,33,-1,35,37,39,41,43,45,47,49,51,-1,-1,-1,-1,-1,-1,-1,-1,-1,-1,-1,-1,-1,-1,-1,-1,-1,-1,-1,-1,-1,-1,-1,-1],"loss_changes":[1.5761448E5,3.6350312E3,9.673016E3,2.6473438E2,2.5454214E3,1.6607188E3,7.8505254E3,0E0,1.2488281E2,2.201468E3,4.92167E2,8.510469E2,3.7371865E3,3.1681816E3,3.251412E3,9.415625E1,0E0,2.3163552E3,6.8585205E0,0E0,3.203579E2,1.2745986E3,7.975E2,5.0647217E2,2.0977134E3,5.5703516E2,2.4653809E3,1.8818804E3,2.609254E3,0E0,0E0,0E0,0E0,0E0,0E0,0E0,0E0,0E0,0E0,0E0,0E0,0E0,0E0,0E0,0E0,0E0,0E0,0E0,0E0,0E0,0E0,0E0,0E0],"parents":[2147483647,0,0,1,1,2,2,3,3,4,4,5,5,6,6,8,8,9,9,10,10,11,11,12,12,13,13,14,14,15,15,17,17,18,18,20,20,21,21,22,22,23,23,24,24,25,25,26,26,27,27,28,28],"right_children":[2,4,6,8,10,12,14,-1,16,18,20,22,24,26,28,30,-1,32,34,-1,36,38,40,42,44,46,48,50,52,-1,-1,-1,-1,-1,-1,-1,-1,-1,-1,-1,-1,-1,-1,-1,-1,-1,-1,-1,-1,-1,-1,-1,-1],"split_conditions":[-1.7859976E0,-1.4160796E0,7.413282E-1,-4.9830067E-1,1.8959074E0,1.0663408E0,-5.575814E-1,-1.4495318E-1,5.767415E-1,2.2414032E-2,5.4089034E-1,-9.853448E-1,1.5378694E-1,-7.233957E-1,1.54E0,2.0917013E-1,-1.4012787E-1,-2.005085E-2,-4.8604634E-1,-1.7377204E-1,-8.7419903E-1,-1.7444316E0,1.2022438E0,-1.6809931E0,-2.625529E-1,3.0095538E-1,5.47024E-1,9.92398E-3,1.6188225E0,1.4898328E-1,-1.5021698E-1,-1.0798929E-1,1.17395416E-1,-1.4876045E-1,-1.7397597E-1,-2.003982E-1,1.4598423E-1,-1.5497886E-1,1.0636572E-1,-1.5044689E-1,-6.4625563E-3,-1.352179E-2,-1.5338282E-1,1.4726415E-1,-1.5372905E-1,-1.6930836E-1,1.5369527E-1,-8.0573425E-2,8.1533186E-2,-1.5321128E-1,6.532326E-2,-1.3361269E-1,8.658037E-2],"split_indices":[14,12,4,4,4,7,12,0,10,27,18,20,4,14,29,30,0,27,4,0,22,1,26,10,13,31,22,28,17,0,0,0,0,0,0,0,0,0,0,0,0,0,0,0,0,0,0,0,0,0,0,0,0],"split_type":[0,0,0,0,0,0,0,0,0,0,0,0,0,0,0,0,0,0,0,0,0,0,0,0,0,0,0,0,0,0,0,0,0,0,0,0,0,0,0,0,0,0,0,0,0,0,0,0,0,0,0,0,0],"sum_hessian":[1.02275234E5,4.5546477E4,5.6728758E4,4.046338E4,5.0830967E3,3.8805535E4,1.792322E4,2.9958107E1,4.043342E4,2.7352961E3,2.3478005E3,3.463713E4,4.1684087E3,5.8488203E3,1.2074401E4,4.0419203E4,1.4220496E1,2.0737488E3,6.615472E2,4.9649097E1,2.2981514E3,7.577379E2,3.387939E4,2.9663608E3,1.2020477E3,2.0428741E3,3.8059463E3,2.1862893E3,9.888111E3,4.0409434E4,9.767044E0,6.7551373E2,1.3982351E3,2.3084315E2,4.3070404E2,2.6190075E1,2.2719614E3,4.2889642E2,3.288415E2,3.349015E4,3.8924225E2,2.8682703E2,2.6795337E3,8.901256E2,3.1192212E2,5.4075954E1,1.9887982E3,2.132302E3,1.6736442E3,5.144847E2,1.6718047E3,9.317631E3,5.7048083E2],"tree_param":{"num_deleted":"0","num_feature":"33","num_nodes":"53","size_leaf_vector":"1"}},{"base_weights":[2.5963713E-4,1.3189154E0,-1.0472065E0,1.4173714E0,5.5020994E-1,-1.3206153E0,-4.6797952E-1,-1.3820766E-1,1.419486E0,-6.2327806E-2,1.2793037E0,-1.3914561E0,-7.430551E-1,4.0935138E-1,-8.9965135E-1,1.4204943E0,-1.335626E-1,4.4529676E-1,-1.5316021E0,1.3450289E0,-1.6630207E-1,-3.898361E-1,-1.414192E0,-1.3230382E0,6.171533E-1,9.365197E-1,-4.867218E-1,1.24022834E-1,-1.1339265E0,1.4212294E-1,-1.4146057E-1,9.100621E-2,-1.6009489E-1,-1.4381735E-1,-1.5873559E-1,1.3853505E-1,-1.8970959E-1,-1.471542E-1,9.758999E-2,-1.4307642E-1,-5.829628E-3,-1.4643404E-1,-1.1825671E-2,1.6732344E-1,-7.989501E-2,1.1720262E-1,-1.5553758E-1,9.4497375E-2,-1.2261778E-1,-5.415156E-2,1.3362803E-1,-1.4154285E-1,-2.9292425E-2],"categories":[],"categories_nodes":[],"categories_segments":[],"categories_sizes":[],"default_left":[0,0,0,0,0,0,0,0,0,0,0,0,0,0,0,0,0,0,0,0,0,0,0,0,0,0,0,0,0,0,0,0,0,0,0,0,0,0,0,0,0,0,0,0,0,0,0,0,0,0,0,0,0],"id":5,"left_children":[1,3,5,7,9,11,13,-1,15,17,19,21,23,25,27,29,-1,31,33,35,-1,37,39,41,43,45,47,49,51,-1,-1,-1,-1,-1,-1,-1,-1,-1,-1,-1,-1,-1,-1,-1,-1,-1,-1,-1,-1,-1,-1,-1,-1],"loss_changes":[1.3476575E5,3.2682031E3,8.610578E3,2.28625E2,2.1909358E3,1.5103047E3,6.604365E3,0E0,1.081875E2,1.9897454E3,4.353777E2,7.4871094E2,3.186285E3,2.7171929E3,2.8030703E3,8.171094E1,0E0,1.8872009E3,1.2854004E0,2.89104E2,0E0,1.0823081E3,7.228086E2,4.817954E2,1.8075159E3,2.1269912E3,2.2570732E3,1.7575756E3,2.2512627E3,0E0,0E0,0E0,0E0,0E0,0E0,0E0,0E0,0E0,0E0,0E0,0E0,0E0,0E0,0E0,0E0,0E0,0E0,0E0,0E0,0E0,0E0,0E0,0E0],"parents":[2147483647,0,0,1,1,2,2,3,3,4,4,5,5,6,6,8,8,9,9,10,10,11,11,12,12,13,13,14,14,15,15,17,17,18,18,19,19,21,21,22,22,23,23,24,24,25,25,26,26,27,27,28,28],"right_children":[2,4,6,8,10,12,14,-1,16,18,20,22,24,26,28,30,-1,32,34,36,-1,38,40,42,44,46,48,50,52,-1,-1,-1,-1,-1,-1,-1,-1,-1,-1,-1,-1,-1,-1,-1,-1,-1,-1,-1,-1,-1,-1,-1,-1],"split_conditions":[-1.7859976E0,-1.4160796E0,7.413282E-1,-4.9830067E-1,1.8959074E0,1.0663408E0,-5.575814E-1,-1.3820766E-1,5.767415E-1,-1.1814422E-1,2.0826507E-1,-9.853448E-1,1.5378694E-1,3.4057415E-1,1.54E0,2.0917013E-1,-1.335626E-1,2.2414032E-2,-4.8604634E-1,5.0629616E-1,-1.6630207E-1,-1.7444316E0,1.2022438E0,8.8129526E-1,-7.0378727E-1,1.2776982E0,-7.4005884E-1,6.752227E-1,5.5362684E-1,1.4212294E-1,-1.4146057E-1,9.100621E-2,-1.6009489E-1,-1.4381735E-1,-1.5873559E-1,1.3853505E-1,-1.8970959E-1,-1.471542E-1,9.758999E-2,-1.4307642E-1,-5.829628E-3,-1.4643404E-1,-1.1825671E-2,1.6732344E-1,-7.989501E-2,1.1720262E-1,-1.5553758E-1,9.4497375E-2,-1.2261778E-1,-5.415156E-2,1.3362803E-1,-1.4154285E-1,-2.9292425E-2],"split_indices":[14,12,4,4,4,7,12,0,10,26,23,20,4,14,29,30,0,27,4,19,0,1,26,15,10,3,7,31,17,0,0,0,0,0,0,0,0,0,0,0,0,0,0,0,0,0,0,0,0,0,0,0,0],"split_type":[0,0,0,0,0,0,0,0,0,0,0,0,0,0,0,0,0,0,0,0,0,0,0,0,0,0,0,0,0,0,0,0,0,0,0,0,0,0,0,0,0,0,0,0,0,0,0,0,0,0,0,0,0],"sum_hessian":[9.756615E4,4.319176E4,5.437439E4,3.8287098E4,4.904662E3,3.6937668E4,1.7436723E4,2.8406807E1,3.825869E4,2.6658777E3,2.2387847E3,3.2900797E4,4.036871E3,5.7501514E3,1.168657E4,3.824518E4,1.3513101E1,1.9818563E3,6.840213E2,2.1903987E3,4.8385983E1,7.306415E2,3.2170154E4,2.8301448E3,1.2067263E3,3.620268E3,2.129883E3,2.176545E3,9.510025E3,3.8235766E4,9.414311E0,1.6154851E3,3.6637115E2,2.6565216E2,4.1836914E2,2.1640576E3,2.6341198E1,4.0767365E2,3.2296783E2,3.1781652E4,3.885022E2,2.532864E3,2.9728085E2,6.9112646E2,5.1559985E2,3.3081482E3,3.1211996E2,7.253061E2,1.4045771E3,1.4054795E3,7.710655E2,7.124586E3,2.3854397E3],"tree_param":{"num_deleted":"0","num_feature":"33","num_nodes":"53","size_leaf_vector":"1"}},{"base_weights":[2.0029403E-4,1.2635162E0,-9.9137294E-1,1.3608464E0,5.177505E-1,-1.2597578E0,-4.3611622E-1,-1.3256313E-1,1.3628827E0,-5.902822E-2,1.2181059E0,-1.330823E0,-6.944376E-1,3.789542E-1,-8.3935076E-1,1.3638568E0,-1.279936E-1,4.1190264E-1,-1.4571092E0,-1.6028954E-1,1.2821901E0,-3.6755094E-1,-1.3530604E0,-1.2585604E0,5.480305E-1,1.2794422E0,-9.189645E-2,1.1056954E-1,-1.0665225E0,1.3645719E-1,-1.3417147E-1,8.3901316E-2,-1.5128678E-1,-1.3788271E-1,-1.5026514E-1,1.321831E-1,-2.0818733E-1,-1.4074461E-1,8.979398E-2,-1.3698882E-1,-5.257749E-3,-1.402093E-1,-4.122829E-3,1.1858519E-1,-1.4610417E-1,-1.6280177E-1,1.3612883E-1,-7.292088E-2,7.152742E-2,-1.4488189E-1,5.5519562E-2,3.1528886E-2,-1.2456983E-1],"categories":[],"categories_nodes":[],"categories_segments":[],"categories_sizes":[],"default_left":[0,0,0,0,0,0,0,0,0,0,0,0,0,0,0,0,0,0,0,0,0,0,0,0,0,0,0,0,0,0,0,0,0,0,0,0,0,0,0,0,0,0,0,0,0,0,0,0,0,0,0,0,0],"id":6,"left_children":[1,3,5,7,9,11,13,-1,15,17,19,21,23,25,27,29,-1,31,33,-1,35,37,39,41,43,45,47,49,51,-1,-1,-1,-1,-1,-1,-1,-1,-1,-1,-1,-1,-1,-1,-1,-1,-1,-1,-1,-1,-1,-1,-1,-1],"loss_changes":[1.15961914E5,2.9540898E3,7.72834E3,1.9879688E2,1.8990763E3,1.4037227E3,5.5552305E3,0E0,9.4375E1,1.6985712E3,3.858811E2,6.6478906E2,2.7387466E3,2.3722598E3,2.44027E3,7.1421875E1,0E0,1.5878268E3,2.4560547E-1,0E0,2.7966846E2,9.2531616E2,6.642617E2,4.6942236E2,1.5657444E3,4.593518E2,1.8908652E3,1.5145355E3,2.25975E3,0E0,0E0,0E0,0E0,0E0,0E0,0E0,0E0,0E0,0E0,0E0,0E0,0E0,0E0,0E0,0E0,0E0,0E0,0E0,0E0,0E0,0E0,0E0,0E0],"parents":[2147483647,0,0,1,1,2,2,3,3,4,4,5,5,6,6,8,8,9,9,10,10,11,11,12,12,13,13,14,14,15,15,17,17,18,18,20,20,21,21,22,22,23,23,24,24,25,25,26,26,27,27,28,28],"right_children":[2,4,6,8,10,12,14,-1,16,18,20,22,24,26,28,30,-1,32,34,-1,36,38,40,42,44,46,48,50,52,-1,-1,-1,-1,-1,-1,-1,-1,-1,-1,-1,-1,-1,-1,-1,-1,-1,-1,-1,-1,-1,-1,-1,-1],"split_conditions":[-1.7859976E0,-1.4160796E0,7.413282E-1,-4.9830067E-1,1.8959074E0,1.0663408E0,-5.575814E-1,-1.3256313E-1,5.767415E-1,-1.1814422E-1,5.4089034E-1,-9.853448E-1,1.5378694E-1,-7.233957E-1,1.54E0,2.0917013E-1,-1.279936E-1,2.2414032E-2,-4.8604634E-1,-1.6028954E-1,2.0129874E0,-1.7444316E0,1.2022438E0,3.0202103E0,-2.625529E-1,3.0095538E-1,5.47024E-1,9.92398E-3,-6.041179E-1,1.3645719E-1,-1.3417147E-1,8.3901316E-2,-1.5128678E-1,-1.3788271E-1,-1.5026514E-1,1.321831E-1,-2.0818733E-1,-1.4074461E-1,8.979398E-2,-1.3698882E-1,-5.257749E-3,-1.402093E-1,-4.122829E-3,1.1858519E-1,-1.4610417E-1,-1.6280177E-1,1.3612883E-1,-7.292088E-2,7.152742E-2,-1.4488189E-1,5.5519562E-2,3.1528886E-2,-1.2456983E-1],"split_indices":[14,12,4,4,4,7,12,0,10,26,18,20,4,14,29,30,0,27,4,0,2,1,26,7,13,31,22,28,8,0,0,0,0,0,0,0,0,0,0,0,0,0,0,0,0,0,0,0,0,0,0,0,0],"split_type":[0,0,0,0,0,0,0,0,0,0,0,0,0,0,0,0,0,0,0,0,0,0,0,0,0,0,0,0,0,0,0,0,0,0,0,0,0,0,0,0,0,0,0,0,0,0,0,0,0,0,0,0,0],"sum_hessian":[9.256978E4,4.070686E4,5.1862926E4,3.6006773E4,4.700086E3,3.496246E4,1.6900467E4,2.6781023E1,3.5979992E4,2.5779375E3,2.1221482E3,3.1056998E4,3.9054617E3,5.593736E3,1.130673E4,3.596722E4,1.2772619E1,1.9289078E3,6.4902966E2,4.6604237E1,2.075544E3,7.011793E2,3.0355818E4,2.6859404E3,1.2195214E3,1.9200258E3,3.67371E3,2.18223E3,9.1245E3,3.595821E4,9.008343E0,1.5790725E3,3.4983533E2,2.5021458E2,3.988151E2,2.0519714E3,2.3572638E1,3.8483536E2,3.16344E2,2.996799E4,3.8782947E2,2.4025144E3,2.8342593E2,9.2596454E2,2.935568E2,5.205236E1,1.8679734E3,2.052907E3,1.6208032E3,4.8366528E2,1.6985647E3,1.0472568E3,8.077243E3],"tree_param":{"num_deleted":"0","num_feature":"33","num_nodes":"53","size_leaf_vector":"1"}},{"base_weights":[1.6889317E-4,1.2166492E0,-9.4235104E-1,1.2418973E0,-1.5994018E0,-1.2085946E0,-4.0677926E-1,1.3074005E0,4.8220927E-1,-1.7699474E0,-1.3804498E-1,-1.2796677E0,-6.54911E-1,3.493952E-1,-7.8682137E-1,1.3108661E0,-1.6975582E0,-1.6281719E0,7.420311E-1,-1.9210049E0,-1.320889E-1,-3.4795752E-1,-1.3015771E0,-1.203257E0,4.9642622E-1,1.20343E0,-8.3750375E-2,9.921513E-2,-1.0066254E0,-1.3857506E-1,1.3128254E-1,-2.0375083E-1,-1.4659739E-1,-1.9145724E-1,-1.3968296E-1,1.0073872E-1,-6.943307E-2,-1.2194804E-1,-1.9712625E-1,-1.3541709E-1,8.277845E-2,-1.3188507E-1,-4.7411784E-3,2.710295E-4,-1.3503106E-1,1.3687466E-1,-7.594761E-2,1.2803616E-1,-1.5725212E-1,4.419395E-2,-9.537028E-2,7.705929E-2,-8.889112E-2,-1.5550764E-2,-1.3129394E-1],"categories":[],"categories_nodes":[],"categories_segments":[],"categories_sizes":[],"default_left":[0,0,0,0,0,0,0,0,0,0,0,0,0,0,0,0,0,0,0,0,0,0,0,0,0,0,0,0,0,0,0,0,0,0,0,0,0,0,0,0,0,0,0,0,0,0,0,0,0,0,0,0,0,0,0],"id":7,"left_children":[1,3,5,7,9,11,13,15,17,19,-1,21,23,25,27,29,31,33,35,37,-1,39,41,43,45,47,49,51,53,-1,-1,-1,-1,-1,-1,-1,-1,-1,-1,-1,-1,-1,-1,-1,-1,-1,-1,-1,-1,-1,-1,-1,-1,-1,-1],"loss_changes":[1.00276375E5,2.7166094E3,7.0262188E3,1.882457E3,1.0242126E1,1.2944297E3,4.703046E3,3.6501953E2,1.6491594E3,1.0176025E1,0E0,5.949883E2,2.365869E3,2.0251481E3,2.1211963E3,1.8566016E2,2.0684814E-1,1.917511E1,1.0209043E3,2.4631348E0,0E0,7.9557245E2,6.1733203E2,4.5011353E2,1.3259807E3,3.9542822E2,1.6619152E3,1.4374255E3,2.2748574E3,0E0,0E0,0E0,0E0,0E0,0E0,0E0,0E0,0E0,0E0,0E0,0E0,0E0,0E0,0E0,0E0,0E0,0E0,0E0,0E0,0E0,0E0,0E0,0E0,0E0,0E0],"parents":[2147483647,0,0,1,1,2,2,3,3,4,4,5,5,6,6,7,7,8,8,9,9,11,11,12,12,13,13,14,14,15,15,16,16,17,17,18,18,19,19,21,21,22,22,23,23,24,24,25,25,26,26,27,27,28,28],"right_children":[2,4,6,8,10,12,14,16,18,20,-1,22,24,26,28,30,32,34,36,38,-1,40,42,44,46,48,50,52,54,-1,-1,-1,-1,-1,-1,-1,-1,-1,-1,-1,-1,-1,-1,-1,-1,-1,-1,-1,-1,-1,-1,-1,-1,-1,-1],"split_conditions":[-1.7859976E0,5.767415E-1,7.413282E-1,2.0457062E-1,-1.1814422E-1,1.0663408E0,-5.575814E-1,3.1570253E-1,-1.6426414E-2,2.1421788E-2,-1.3804498E-1,-9.853448E-1,1.5378694E-1,-7.233957E-1,1.54E0,-4.8604634E-1,2.034108E-2,-1.2256512E-1,2.438503E-1,-1.4160796E0,-1.320889E-1,-1.7444316E0,1.2022438E0,-1.6809931E0,-7.0378727E-1,1.2187487E0,4.799177E-2,-4.2423123E-1,-4.254906E-1,-1.3857506E-1,1.3128254E-1,-2.0375083E-1,-1.4659739E-1,-1.9145724E-1,-1.3968296E-1,1.0073872E-1,-6.943307E-2,-1.2194804E-1,-1.9712625E-1,-1.3541709E-1,8.277845E-2,-1.3188507E-1,-4.7411784E-3,2.710295E-4,-1.3503106E-1,1.3687466E-1,-7.594761E-2,1.2803616E-1,-1.5725212E-1,4.419395E-2,-9.537028E-2,7.705929E-2,-8.889112E-2,-1.5550764E-2,-1.3129394E-1],"split_indices":[14,10,4,30,26,7,12,12,28,27,0,20,4,14,29,4,27,26,22,12,0,1,26,10,10,3,18,9,14,0,0,0,0,0,0,0,0,0,0,0,0,0,0,0,0,0,0,0,0,0,0,0,0,0,0],"split_type":[0,0,0,0,0,0,0,0,0,0,0,0,0,0,0,0,0,0,0,0,0,0,0,0,0,0,0,0,0,0,0,0,0,0,0,0,0,0,0,0,0,0,0,0,0,0,0,0,0,0,0,0,0,0,0],"sum_hessian":[8.745669E4,3.817943E4,4.9277258E4,3.784072E4,3.3871262E2,3.291386E4,1.6363399E4,3.4836277E4,3.0044382E3,1.8642178E2,1.5229082E2,2.9168377E4,3.745483E3,5.4732627E3,1.0890137E4,3.479671E4,3.95677E1,3.287694E2,2.6756687E3,1.3704407E2,4.937772E1,6.705297E2,2.8497846E4,2.5370974E3,1.2083855E3,1.8411942E3,3.6320686E3,2.164703E3,8.725434E3,2.4749424E1,3.477196E4,1.2872953E1,2.6694744E1,1.436525E2,1.8511691E2,2.2586926E3,4.169762E2,1.085056E1,1.26193504E2,3.6123175E2,3.09298E2,2.8110627E4,3.8721863E2,2.7585193E2,2.2612456E3,7.130369E2,4.9534857E2,1.7920685E3,4.9125774E1,2.2643013E3,1.3677672E3,1.2890703E3,8.756326E2,2.3095833E3,6.415851E3],"tree_param":{"num_deleted":"0","num_feature":"33","num_nodes":"55","size_leaf_vector":"1"}},{"base_weights":[1.2516083E-4,1.1748984E0,-8.980269E-1,1.2736089E0,4.5552695E-1,-1.163924E0,-3.796658E-1,-1.2409633E-1,1.2755438E0,-6.940383E-2,1.1222751E0,-1.2358932E0,-6.173511E-1,3.2197058E-1,-7.382463E-1,1.2764643E0,-1.18827425E-1,-6.416663E-1,9.322853E-1,1.1883227E0,-1.5928149E-1,-1.2530354E0,-5.2910507E-2,-1.1551834E0,4.470761E-1,7.810628E-1,-4.292513E-1,8.942206E-2,-9.5136523E-1,1.2772027E-1,-1.2846363E-1,1.7033497E-2,-1.5773481E-1,1.2342981E-1,-1.7001194E-1,-1.9692476E-1,1.2273516E-1,-3.2557316E-2,-1.2755066E-1,-1.5032814E-1,2.4700704E-1,-1.3125454E-1,2.3450356E-3,9.894941E-2,-1.4043157E-1,9.9306494E-2,-1.4512819E-1,8.5911475E-2,-1.1218561E-1,-3.5776462E-2,1.4945225E-1,-1.257225E-1,-1.2928644E-2],"categories":[],"categories_nodes":[],"categories_segments":[],"categories_sizes":[],"default_left":[0,0,0,0,0,0,0,0,0,0,0,0,0,0,0,0,0,0,0,0,0,0,0,0,0,0,0,0,0,0,0,0,0,0,0,0,0,0,0,0,0,0,0,0,0,0,0,0,0,0,0,0,0],"id":8,"left_children":[1,3,5,7,9,11,13,-1,15,17,19,21,23,25,27,29,-1,31,33,35,-1,37,39,41,43,45,47,49,51,-1,-1,-1,-1,-1,-1,-1,-1,-1,-1,-1,-1,-1,-1,-1,-1,-1,-1,-1,-1,-1,-1,-1,-1],"loss_changes":[8.697248E4,2.5354922E3,6.438203E3,1.543789E2,1.5088774E3,1.2137695E3,3.9853655E3,0E0,7.267969E1,1.3837443E3,3.4243018E2,5.531797E2,2.0582876E3,1.848157E3,1.8491484E3,6.095703E1,0E0,1.1674379E3,6.998864E2,2.3095532E2,0E0,5.600586E2,1.4335029E3,4.429729E2,1.2137733E3,1.5754601E3,1.8150435E3,1.3498535E3,2.0959175E3,0E0,0E0,0E0,0E0,0E0,0E0,0E0,0E0,0E0,0E0,0E0,0E0,0E0,0E0,0E0,0E0,0E0,0E0,0E0,0E0,0E0,0E0,0E0,0E0],"parents":[2147483647,0,0,1,1,2,2,3,3,4,4,5,5,6,6,8,8,9,9,10,10,11,11,12,12,13,13,14,14,15,15,17,17,18,18,19,19,21,21,22,22,23,23,24,24,25,25,26,26,27,27,28,28],"right_children":[2,4,6,8,10,12,14,-1,16,18,20,22,24,26,28,30,-1,32,34,36,-1,38,40,42,44,46,48,50,52,-1,-1,-1,-1,-1,-1,-1,-1,-1,-1,-1,-1,-1,-1,-1,-1,-1,-1,-1,-1,-1,-1,-1,-1],"split_conditions":[-1.7859976E0,-1.4160796E0,7.413282E-1,-4.9830067E-1,1.8959074E0,1.0663408E0,-5.575814E-1,-1.2409633E-1,5.767415E-1,1.0624E2,2.0826507E-1,1.2022438E0,1.5378694E-1,3.4057415E-1,1.54E0,2.0917013E-1,-1.18827425E-1,-2.2042194E-1,-9.746951E-1,-6.626826E-2,-1.5928149E-1,-9.853448E-1,1.3465661E0,8.8129526E-1,-2.625529E-1,1.2776982E0,-7.4005884E-1,1.0915551E0,5.5362684E-1,1.2772027E-1,-1.2846363E-1,1.7033497E-2,-1.5773481E-1,1.2342981E-1,-1.7001194E-1,-1.9692476E-1,1.2273516E-1,-3.2557316E-2,-1.2755066E-1,-1.5032814E-1,2.4700704E-1,-1.3125454E-1,2.3450356E-3,9.894941E-2,-1.4043157E-1,9.9306494E-2,-1.4512819E-1,8.5911475E-2,-1.1218561E-1,-3.5776462E-2,1.4945225E-1,-1.257225E-1,-1.2928644E-2],"split_indices":[14,12,4,4,4,7,12,0,10,29,23,26,4,14,29,30,0,15,10,11,0,20,12,15,13,3,7,31,17,0,0,0,0,0,0,0,0,0,0,0,0,0,0,0,0,0,0,0,0,0,0,0,0],"split_type":[0,0,0,0,0,0,0,0,0,0,0,0,0,0,0,0,0,0,0,0,0,0,0,0,0,0,0,0,0,0,0,0,0,0,0,0,0,0,0,0,0,0,0,0,0,0,0,0,0,0,0,0,0],"sum_hessian":[8.24266E4,3.5713465E4,4.6713137E4,3.1403566E4,4.3098975E3,3.0874562E4,1.5838573E4,2.365298E1,3.1379912E4,2.4119028E3,1.8979949E3,2.7281098E4,3.593465E3,5.3568667E3,1.0481707E4,3.1368676E4,1.12372465E1,1.535204E3,8.766987E2,1.8534695E3,4.452537E1,2.6891365E4,3.8973212E2,2.387186E3,1.2062792E3,3.3248938E3,2.0319729E3,2.146427E3,8.33528E3,3.1360137E4,8.5385685E0,8.223618E2,7.1284216E2,7.869446E2,8.975415E1,2.2026114E1,1.8314434E3,6.3649884E2,2.6254867E4,2.4772697E2,1.4200514E2,2.105908E3,2.8127798E2,9.333061E2,2.7297305E2,3.0370273E3,2.8786646E2,7.1035254E2,1.3216204E3,1.6287932E3,5.1763367E2,6.0746416E3,2.2606387E3],"tree_param":{"num_deleted":"0","num_feature":"33","num_nodes":"53","size_leaf_vector":"1"}},{"base_weights":[6.48765E-5,1.139433E0,-8.585733E-1,1.239401E0,4.3078288E-1,-1.1244125E0,-3.5588583E-1,-1.2045608E-1,1.2412914E0,-1.5008006E0,5.993257E-1,-1.1822765E0,-4.4607943E-1,1.7050675E-1,-7.801428E-1,1.2421939E0,-1.1514791E-1,-1.6691995E0,-1.3164693E-1,1.5299174E-1,1.1132993E0,-6.8348277E-1,-1.2243162E0,5.041425E-1,-1.3049395E0,1.019565E0,-1.4108762E-1,5.3132904E-1,-9.4874567E-1,1.24292314E-1,-1.23094715E-1,-1.7506783E-1,-1.2983985E-1,5.6035038E-2,-1.3791363E-1,-1.6934766E-1,1.1691176E-1,-1.2671345E-1,1.342499E-2,-1.2431514E-1,2.7129792E-3,9.841257E-2,-1.3804214E-1,-1.2709437E-1,-1.3538837E-1,-1.5776949E-1,1.1511942E-1,5.0356776E-2,-8.890393E-2,-1.4026868E-1,1.4211236E-1,3.0242894E-3,-1.2227553E-1],"categories":[],"categories_nodes":[],"categories_segments":[],"categories_sizes":[],"default_left":[0,0,0,0,0,0,0,0,0,0,0,0,0,0,0,0,0,0,0,0,0,0,0,0,0,0,0,0,0,0,0,0,0,0,0,0,0,0,0,0,0,0,0,0,0,0,0,0,0,0,0,0,0],"id":9,"left_children":[1,3,5,7,9,11,13,-1,15,17,19,21,23,25,27,29,-1,31,-1,33,35,37,39,41,43,45,47,49,51,-1,-1,-1,-1,-1,-1,-1,-1,-1,-1,-1,-1,-1,-1,-1,-1,-1,-1,-1,-1,-1,-1,-1,-1],"loss_changes":[7.574596E4,2.3566445E3,5.899842E3,1.3620312E2,1.3405815E3,1.1330078E3,3.4112205E3,0E0,6.436719E1,8.062744E0,8.6824756E2,5.571289E2,1.854418E3,1.8037516E3,1.8706558E3,5.405078E1,0E0,2.8328247E0,0E0,1.26603E3,2.7760767E2,9.8840625E2,5.784531E2,9.7746576E2,2.6501465E-1,6.2756287E2,2.4055183E3,1.661094E3,2.0104814E3,0E0,0E0,0E0,0E0,0E0,0E0,0E0,0E0,0E0,0E0,0E0,0E0,0E0,0E0,0E0,0E0,0E0,0E0,0E0,0E0,0E0,0E0,0E0,0E0],"parents":[2147483647,0,0,1,1,2,2,3,3,4,4,5,5,6,6,8,8,9,9,10,10,11,11,12,12,13,13,14,14,15,15,17,17,19,19,20,20,21,21,22,22,23,23,24,24,25,25,26,26,27,27,28,28],"right_children":[2,4,6,8,10,12,14,-1,16,18,20,22,24,26,28,30,-1,32,-1,34,36,38,40,42,44,46,48,50,52,-1,-1,-1,-1,-1,-1,-1,-1,-1,-1,-1,-1,-1,-1,-1,-1,-1,-1,-1,-1,-1,-1,-1,-1],"split_conditions":[-1.7859976E0,-1.4160796E0,7.413282E-1,-4.9830067E-1,6.5980566E-1,3.0477E2,-2.1248002E-1,-1.2045608E-1,5.767415E-1,-1.2256512E-1,1.8959074E0,-1.3300555E0,-3.3360067E-1,-8.2587683E-1,-4.437412E-1,2.0917013E-1,-1.1514791E-1,5.2732017E-2,-1.3164693E-1,2.2414032E-2,-8.7419903E-1,3.48938E-1,1.2022438E0,3.6313948E-1,1.0663408E0,3.3145562E-1,-1.1611094E-1,2.611045E-1,1.54E0,1.24292314E-1,-1.23094715E-1,-1.7506783E-1,-1.2983985E-1,5.6035038E-2,-1.3791363E-1,-1.6934766E-1,1.1691176E-1,-1.2671345E-1,1.342499E-2,-1.2431514E-1,2.7129792E-3,9.841257E-2,-1.3804214E-1,-1.2709437E-1,-1.3538837E-1,-1.5776949E-1,1.1511942E-1,5.0356776E-2,-8.890393E-2,-1.4026868E-1,1.4211236E-1,3.0242894E-3,-1.2227553E-1],"split_indices":[14,12,4,4,17,29,12,0,10,26,4,6,26,14,21,30,0,27,0,27,22,18,26,31,7,31,8,18,29,0,0,0,0,0,0,0,0,0,0,0,0,0,0,0,0,0,0,0,0,0,0,0,0],"split_type":[0,0,0,0,0,0,0,0,0,0,0,0,0,0,0,0,0,0,0,0,0,0,0,0,0,0,0,0,0,0,0,0,0,0,0,0,0,0,0,0,0,0,0,0,0,0,0,0,0,0,0,0,0],"sum_hessian":[7.742372E4,3.3272508E4,4.415121E4,2.915843E4,4.1140767E3,2.8878162E4,1.5273049E4,2.2044056E1,2.9136387E4,3.2953534E2,3.7845415E3,2.6607697E4,2.270465E3,6.8163403E3,8.456708E3,2.9125879E4,1.0506339E1,1.680004E2,1.6153494E2,2.026248E3,1.7582935E3,2.0695972E3,2.45381E4,1.0780973E3,1.1923677E3,1.8293374E3,4.987003E3,9.6310187E2,7.4936064E3,2.9117793E4,8.086809E0,1.3468402E2,3.3316376E1,1.6011676E3,4.2508047E2,3.371326E1,1.7245802E3,1.2073259E3,8.6227124E2,2.4174266E4,3.6383377E2,8.596334E2,2.1846388E2,7.1954877E2,4.728189E2,8.770895E1,1.7416284E3,2.6786318E3,2.308371E3,3.0329584E2,6.59806E2,1.63892E3,5.8546865E3],"tree_param":{"num_deleted":"0","num_feature":"33","num_nodes":"53","size_leaf_vector":"1"}},{"base_weights":[-2.3167619E-5,1.1077085E0,-8.2200706E-1,1.2099423E0,4.0622345E-1,-1.0888977E0,-3.336888E-1,-1.1725732E-1,1.2117956E0,-6.144455E-2,1.0420092E0,-1.1636603E0,-5.443881E-1,2.833157E-1,-6.567824E-1,1.2126839E0,-1.11854434E-1,3.5380775E-1,-1.3414204E0,-1.8009166E0,1.1017151E0,-2.633843E-1,-1.1874447E0,-1.0816776E0,4.2880714E-1,5.091577E-1,-1.1337523E0,4.1040143E-1,-8.107527E-1,1.2134063E-1,-1.18402176E-1,7.001279E-2,-1.338619E-1,-1.2546125E-1,-1.3868964E-1,-2.1619831E-1,-1.4342986E-1,-1.6129677E-1,1.1488831E-1,-1.3433851E-1,7.635452E-2,-1.2066924E-1,-3.8716737E-3,-1.244784E-1,7.748303E-3,-1.4861745E-1,8.498942E-2,-1.6453207E-1,6.891047E-2,-1.5010783E-1,7.712651E-2,-7.4347384E-2,1.3901304E-1,4.4700922E-3,-1.0605556E-1],"categories":[],"categories_nodes":[],"categories_segments":[],"categories_sizes":[],"default_left":[0,0,0,0,0,0,0,0,0,0,0,0,0,0,0,0,0,0,0,0,0,0,0,0,0,0,0,0,0,0,0,0,0,0,0,0,0,0,0,0,0,0,0,0,0,0,0,0,0,0,0,0,0,0,0],"id":10,"left_children":[1,3,5,7,9,11,13,-1,15,17,19,21,23,25,27,29,-1,31,33,35,37,39,41,43,45,47,49,51,53,-1,-1,-1,-1,-1,-1,-1,-1,-1,-1,-1,-1,-1,-1,-1,-1,-1,-1,-1,-1,-1,-1,-1,-1,-1,-1],"loss_changes":[6.6112125E4,2.2175352E3,5.4316484E3,1.2060156E2,1.1702596E3,1.096459E3,2.9368208E3,0E0,5.719922E1,1.2062361E3,2.8511792E2,5.070625E2,1.7026804E3,1.6210581E3,1.5890195E3,4.8117188E1,0E0,1.0053435E3,4.5440674E-1,1.4911804E0,2.111261E2,6.78875E2,5.103711E2,3.967063E2,9.3559985E2,1.6946162E3,4.8844305E2,1.379924E3,1.8057324E3,0E0,0E0,0E0,0E0,0E0,0E0,0E0,0E0,0E0,0E0,0E0,0E0,0E0,0E0,0E0,0E0,0E0,0E0,0E0,0E0,0E0,0E0,0E0,0E0,0E0,0E0],"parents":[2147483647,0,0,1,1,2,2,3,3,4,4,5,5,6,6,8,8,9,9,10,10,11,11,12,12,13,13,14,14,15,15,17,17,18,18,19,19,20,20,21,21,22,22,23,23,24,24,25,25,26,26,27,27,28,28],"right_children":[2,4,6,8,10,12,14,-1,16,18,20,22,24,26,28,30,-1,32,34,36,38,40,42,44,46,48,50,52,54,-1,-1,-1,-1,-1,-1,-1,-1,-1,-1,-1,-1,-1,-1,-1,-1,-1,-1,-1,-1,-1,-1,-1,-1,-1,-1],"split_conditions":[-1.7859976E0,-1.4160796E0,7.413282E-1,-4.9830067E-1,1.8959074E0,1.0663408E0,-5.575814E-1,-1.1725732E-1,5.767415E-1,-1.1814422E-1,-1.2442464E-2,-9.853448E-1,1.5378694E-1,1.2427965E0,-6.041179E-1,2.0917013E-1,-1.11854434E-1,2.2414032E-2,-4.8604634E-1,5.9249496E-1,-8.7419903E-1,2.1563752E-1,1.2022438E0,3.0202103E0,-2.540109E-2,2.620064E-1,5.6E2,2.0106281E-1,1.54E0,1.2134063E-1,-1.18402176E-1,7.001279E-2,-1.338619E-1,-1.2546125E-1,-1.3868964E-1,-2.1619831E-1,-1.4342986E-1,-1.6129677E-1,1.1488831E-1,-1.3433851E-1,7.635452E-2,-1.2066924E-1,-3.8716737E-3,-1.244784E-1,7.748303E-3,-1.4861745E-1,8.498942E-2,-1.6453207E-1,6.891047E-2,-1.5010783E-1,7.712651E-2,-7.4347384E-2,1.3901304E-1,4.4700922E-3,-1.0605556E-1],"split_indices":[14,12,4,4,4,7,12,0,10,26,28,20,4,13,8,30,0,27,4,10,22,30,26,7,28,31,29,9,29,0,0,0,0,0,0,0,0,0,0,0,0,0,0,0,0,0,0,0,0,0,0,0,0,0,0],"split_type":[0,0,0,0,0,0,0,0,0,0,0,0,0,0,0,0,0,0,0,0,0,0,0,0,0,0,0,0,0,0,0,0,0,0,0,0,0,0,0,0,0,0,0,0,0,0,0,0,0,0,0,0,0,0,0],"sum_hessian":[7.26058E4,3.0927102E4,4.167869E4,2.6992508E4,3.9345923E3,2.6948656E4,1.4730036E4,2.0488209E1,2.697202E4,2.267546E3,1.6670464E3,2.369424E4,3.254416E3,5.0624717E3,9.667564E3,2.696222E4,9.799979E0,1.7126487E3,5.548973E2,3.3690582E1,1.6333557E3,6.10179E2,2.3084062E4,2.0967268E3,1.1576892E3,4.367114E3,6.953582E2,1.2187336E3,8.448831E3,2.695459E4,7.629802E0,1.4222092E3,2.9043942E2,2.0058847E2,3.5430884E2,1.4506575E1,1.9184006E1,2.7328169E1,1.6060276E3,2.9725443E2,3.129246E2,2.27036E4,3.8046207E2,1.8380231E3,2.5870374E2,2.0822285E2,9.4946643E2,3.3600717E2,4.0311064E3,5.831308E2,1.1222737E2,5.597406E2,6.5899304E2,1.9097354E3,6.539095E3],"tree_param":{"num_deleted":"0","num_feature":"33","num_nodes":"55","size_leaf_vector":"1"}},{"base_weights":[-1.2398387E-4,1.08046E0,-7.8769565E-1,1.1843878E0,3.8621333E-1,-1.057549E0,-3.1226662E-1,-1.14416756E-1,1.18621E0,-1.4433938E0,5.469019E-1,-1.1338042E0,-5.1709867E-1,1.5308297E-1,-7.041075E-1,1.1868911E0,-1.9241914E0,-1.6046774E0,-1.24862865E-1,6.6242474E-1,-1.3261557E-1,-2.4938339E-1,-1.1579739E0,1.5512533E-1,-1.244638E0,4.5603868E-1,-6.055934E-1,5.156348E-1,-8.6845124E-1,-1.9176632E-1,1.1874821E-1,-3.1976685E-1,-9.5592946E-2,-1.6769284E-1,-1.2275813E-1,-1.5036325E-1,7.500094E-2,-1.2457521E-1,7.6332085E-2,-1.1782825E-1,-3.4897625E-3,7.179374E-2,-1.2806399E-1,-1.2137536E-1,-1.4668551E-1,6.2394034E-2,-1.485915E-1,5.9303977E-2,-1.4265223E-1,-1.338337E-1,1.3022833E-1,2.3595123E-3,-1.1515226E-1],"categories":[],"categories_nodes":[],"categories_segments":[],"categories_sizes":[],"default_left":[0,0,0,0,0,0,0,0,0,0,0,0,0,0,0,0,0,0,0,0,0,0,0,0,0,0,0,0,0,0,0,0,0,0,0,0,0,0,0,0,0,0,0,0,0,0,0,0,0,0,0,0,0],"id":11,"left_children":[1,3,5,7,9,11,13,-1,15,17,19,21,23,25,27,29,31,33,-1,35,-1,37,39,41,43,45,47,49,51,-1,-1,-1,-1,-1,-1,-1,-1,-1,-1,-1,-1,-1,-1,-1,-1,-1,-1,-1,-1,-1,-1,-1,-1],"loss_changes":[5.7847957E4,2.067125E3,5.0439375E3,1.0711328E2,1.0981926E3,1.0330527E3,2.596224E3,0E0,5.504297E1,7.4714966E0,7.435117E2,4.695332E2,1.5178113E3,1.496367E3,1.5498645E3,4.795703E1,4.1362934E0,2.3414612E0,0E0,6.1453784E2,0E0,5.921787E2,4.879121E2,1.304927E3,8.447754E0,1.5178098E3,1.829029E3,1.3411655E3,1.7201484E3,0E0,0E0,0E0,0E0,0E0,0E0,0E0,0E0,0E0,0E0,0E0,0E0,0E0,0E0,0E0,0E0,0E0,0E0,0E0,0E0,0E0,0E0,0E0,0E0],"parents":[2147483647,0,0,1,1,2,2,3,3,4,4,5,5,6,6,8,8,9,9,10,10,11,11,12,12,13,13,14,14,15,15,16,16,17,17,19,19,21,21,22,22,23,23,24,24,25,25,26,26,27,27,28,28],"right_children":[2,4,6,8,10,12,14,-1,16,18,20,22,24,26,28,30,32,34,-1,36,-1,38,40,42,44,46,48,50,52,-1,-1,-1,-1,-1,-1,-1,-1,-1,-1,-1,-1,-1,-1,-1,-1,-1,-1,-1,-1,-1,-1,-1,-1],"split_conditions":[-1.7859976E0,-1.4160796E0,7.413282E-1,-4.9830067E-1,6.5980566E-1,1.0663408E0,-2.1248002E-1,-1.14416756E-1,2.1790798E0,-1.2256512E-1,4.7627756E-1,-9.853448E-1,-2.137598E-1,8.30052E-2,-4.437412E-1,-7.0277715E-1,-8.506472E-1,5.2732017E-2,-1.24862865E-1,3.2883007E-2,-1.3261557E-1,-1.7444316E0,1.2022438E0,-2.625529E-1,1.5378694E-1,1.2456738E0,-2.9837558E-1,2.611045E-1,1.54E0,-1.9176632E-1,1.1874821E-1,-3.1976685E-1,-9.5592946E-2,-1.6769284E-1,-1.2275813E-1,-1.5036325E-1,7.500094E-2,-1.2457521E-1,7.6332085E-2,-1.1782825E-1,-3.4897625E-3,7.179374E-2,-1.2806399E-1,-1.2137536E-1,-1.4668551E-1,6.2394034E-2,-1.485915E-1,5.9303977E-2,-1.4265223E-1,-1.338337E-1,1.3022833E-1,2.3595123E-3,-1.1515226E-1],"split_indices":[14,12,4,4,17,7,12,0,7,26,26,20,26,8,21,11,10,27,0,18,0,1,26,13,4,1,3,18,29,0,0,0,0,0,0,0,0,0,0,0,0,0,0,0,0,0,0,0,0,0,0,0,0],"split_type":[0,0,0,0,0,0,0,0,0,0,0,0,0,0,0,0,0,0,0,0,0,0,0,0,0,0,0,0,0,0,0,0,0,0,0,0,0,0,0,0,0,0,0,0,0,0,0,0,0,0,0,0,0],"sum_hessian":[6.797147E4,2.8655059E4,3.9316406E4,2.4923355E4,3.7317026E3,2.5079865E4,1.4236542E4,1.899861E1,2.4904357E4,3.0063834E2,3.4310642E3,2.1977791E4,3.1020735E3,6.50812E3,7.728422E3,2.4899523E4,4.8334894E0,1.6049477E2,1.4014357E2,3.2323518E3,1.9871245E2,5.8493866E2,2.1392854E4,1.6127389E3,1.4893345E3,4.651197E3,1.8569235E3,9.174041E2,6.811018E3,4.121393E0,2.4895402E4,1.0932037E0,3.7402854E0,1.3179591E2,2.8698854E1,1.2499253E2,3.1073594E3,2.9473138E2,2.9020728E2,2.101283E4,3.8002347E2,1.1589406E3,4.5379837E2,1.3132734E3,1.7606111E2,4.28168E3,3.695162E2,7.54931E2,1.1019924E3,2.730884E2,6.443157E2,1.6409109E3,5.170107E3],"tree_param":{"num_deleted":"0","num_feature":"33","num_nodes":"53","size_leaf_vector":"1"}},{"base_weights":[-3.674686E-4,1.0535159E0,-7.565046E-1,1.1617446E0,3.536427E-1,-1.0292231E0,-2.934982E-1,1.16754E0,-1.6648536E0,-1.9877152E-1,9.879264E-1,-1.1072357E0,-4.9184924E-1,3.2822996E-1,-5.76879E-1,-1.2390534E-1,1.1685431E0,-1.9170992E0,-1.2671454E-1,4.1087854E-1,-1.0662185E0,1.0396397E0,-2.202565E0,-5.165018E-1,-1.1460916E0,-1.0237089E0,3.854481E-1,8.244541E-1,-7.4616116E-1,2.4791035E-1,-9.2771035E-1,1.1691197E-1,-1.4940934E-1,-2.3323523E-1,-1.2631921E-1,-1.5332125E-1,8.285394E-2,-1.4692837E-1,7.3858045E-2,1.0703144E-1,-2.225298E-1,-4.7056326E-1,-1.730225E-1,-9.525909E-2,3.8875648E-1,-1.16888285E-1,9.131613E-4,-1.2018996E-1,9.982129E-3,1.0605898E-1,-7.040936E-2,1.1187048E-1,-8.116936E-2,1.01280116E-1,-1.3949497E-1,-5.469211E-2,7.555471E-2,-1.1031412E-1,1.2738891E-2],"categories":[],"categories_nodes":[],"categories_segments":[],"categories_sizes":[],"default_left":[0,0,0,0,0,0,0,0,0,0,0,0,0,0,0,0,0,0,0,0,0,0,0,0,0,0,0,0,0,0,0,0,0,0,0,0,0,0,0,0,0,0,0,0,0,0,0,0,0,0,0,0,0,0,0,0,0,0,0],"id":12,"left_children":[1,3,5,7,9,11,13,15,17,19,21,23,25,27,29,-1,31,33,-1,35,37,39,41,43,45,47,49,51,53,55,57,-1,-1,-1,-1,-1,-1,-1,-1,-1,-1,-1,-1,-1,-1,-1,-1,-1,-1,-1,-1,-1,-1,-1,-1,-1,-1,-1,-1],"loss_changes":[5.0665945E4,2.0114688E3,4.6741816E3,3.7875586E2,1.247121E3,9.760996E2,2.4181343E3,5.686914E1,2.333786E0,1.0067875E3,2.75641E2,4.6634375E2,1.3792585E3,2.2917454E3,2.7281606E3,0E0,3.698047E1,4.4130936E0,0E0,9.0925793E2,5.726357E2,1.6572937E2,2.3480087E1,2.418416E3,5.0253516E2,3.6850244E2,8.2173456E2,1.4164156E3,1.5514604E3,1.135876E3,1.2244209E3,0E0,0E0,0E0,0E0,0E0,0E0,0E0,0E0,0E0,0E0,0E0,0E0,0E0,0E0,0E0,0E0,0E0,0E0,0E0,0E0,0E0,0E0,0E0,0E0,0E0,0E0,0E0,0E0],"parents":[2147483647,0,0,1,1,2,2,3,3,4,4,5,5,6,6,7,7,8,8,9,9,10,10,11,11,12,12,13,13,14,14,16,16,17,17,19,19,20,20,21,21,22,22,23,23,24,24,25,25,26,26,27,27,28,28,29,29,30,30],"right_children":[2,4,6,8,10,12,14,16,18,20,22,24,26,28,30,-1,32,34,-1,36,38,40,42,44,46,48,50,52,54,56,58,-1,-1,-1,-1,-1,-1,-1,-1,-1,-1,-1,-1,-1,-1,-1,-1,-1,-1,-1,-1,-1,-1,-1,-1,-1,-1,-1,-1],"split_conditions":[-1.7859976E0,-1.7696148E0,7.413282E-1,2.144214E-1,2.1870494E0,1.0663408E0,-4.254906E-1,-4.8604634E-1,2.2414032E-2,-1.1702472E-1,7.382561E-1,-1.5605403E0,1.5378694E-1,-8.215705E-2,3.99E0,-1.2390534E-1,3.1570253E-1,-1.2256512E-1,-1.2671454E-1,8.9619E4,1.66793E5,1.55872E5,-1.7750509E0,1.49869E0,1.2022438E0,8.8129526E-1,-7.0378727E-1,2.4884184E-1,-2.5575209E0,1.7272661E0,1.278442E0,1.1691197E-1,-1.4940934E-1,-2.3323523E-1,-1.2631921E-1,-1.5332125E-1,8.285394E-2,-1.4692837E-1,7.3858045E-2,1.0703144E-1,-2.225298E-1,-4.7056326E-1,-1.730225E-1,-9.525909E-2,3.8875648E-1,-1.16888285E-1,9.131613E-4,-1.2018996E-1,9.982129E-3,1.0605898E-1,-7.040936E-2,1.1187048E-1,-8.116936E-2,1.01280116E-1,-1.3949497E-1,-5.469211E-2,7.555471E-2,-1.1031412E-1,1.2738891E-2],"split_indices":[14,10,4,30,4,7,14,4,27,22,13,13,4,13,29,0,12,26,0,0,0,0,12,11,26,15,10,8,12,4,7,0,0,0,0,0,0,0,0,0,0,0,0,0,0,0,0,0,0,0,0,0,0,0,0,0,0,0,0],"split_type":[0,0,0,0,0,0,0,0,0,0,0,0,0,0,0,0,0,0,0,0,0,0,0,0,0,0,0,0,0,0,0,0,0,0,0,0,0,0,0,0,0,0,0,0,0,0,0,0,0,0,0,0,0,0,0,0,0,0,0],"sum_hessian":[6.3578363E4,2.6559732E4,3.701863E4,2.300203E4,3.5577031E3,2.3295795E4,1.3722834E4,2.2955553E4,4.647818E1,1.9019404E3,1.6557628E3,2.034166E4,2.954136E3,4.296436E3,9.426397E3,9.050603E0,2.2946502E4,2.6102407E1,2.037577E1,1.1172516E3,7.846888E2,1.6300167E3,2.5746126E1,1.2562925E3,1.9085367E4,1.8390492E3,1.1150867E3,2.9391685E3,1.3572678E3,2.8131343E3,6.6132637E3,2.2942094E4,4.407563E0,1.4394572E1,1.1707836E1,1.9710652E2,9.201451E2,6.4158887E2,1.4309993E2,1.6155109E3,1.4505828E1,2.6643848E0,2.3081741E1,1.1438159E3,1.1247655E2,1.8716107E4,3.6925967E2,1.5872444E3,2.5180482E2,6.884875E2,4.2659924E2,2.491419E3,4.4774948E2,3.655759E2,9.916919E2,1.0963884E3,1.7167458E3,5.670403E3,9.4286053E2],"tree_param":{"num_deleted":"0","num_feature":"33","num_nodes":"59","size_leaf_vector":"1"}},{"base_weights":[-5.521491E-4,1.0317079E0,-7.259989E-1,1.1417335E0,3.380509E-1,-1.0009187E0,-2.7562615E-1,1.1475523E0,-1.565339E0,-1.8931337E-1,9.5632964E-1,-1.1208634E0,-6.353188E-1,5.9484065E-1,-4.7087657E-1,-1.198568E-1,1.1485521E0,-1.7588516E0,-1.2282399E-1,3.8547802E-1,-1.0223008E0,1.0075806E0,-2.0235975E0,-1.1471064E0,2.6555171E-2,1.6988434E0,-7.77285E-1,-1.4508718E0,8.095551E-1,1.5579443E-1,-9.0664804E-1,1.14913516E-1,-1.4183407E-1,-2.0590329E-1,-1.21768795E-1,-1.5205579E-1,7.900606E-2,-1.4210807E-1,6.79306E-2,1.0500403E-1,-1.4945692E-1,-1.473043E-1,-3.1329522E-1,-1.1648548E-1,6.119113E-2,-1.4252196E-1,2.1143518E-1,4.296373E-2,4.0353972E-1,-1.0857101E-1,1.488616E-3,-1.7354123E-1,-1.302226E-1,1.05299525E-1,-4.068177E-2,6.792166E-2,-3.513425E-2,-1.2083912E-1,1.27512505E-2],"categories":[],"categories_nodes":[],"categories_segments":[],"categories_sizes":[],"default_left":[0,0,0,0,0,0,0,0,0,0,0,0,0,0,0,0,0,0,0,0,0,0,0,0,0,0,0,0,0,0,0,0,0,0,0,0,0,0,0,0,0,0,0,0,0,0,0,0,0,0,0,0,0,0,0,0,0,0,0],"id":13,"left_children":[1,3,5,7,9,11,13,15,17,19,21,23,25,27,29,-1,31,33,-1,35,37,39,41,43,45,47,49,51,53,55,57,-1,-1,-1,-1,-1,-1,-1,-1,-1,-1,-1,-1,-1,-1,-1,-1,-1,-1,-1,-1,-1,-1,-1,-1,-1,-1,-1,-1],"loss_changes":[4.4483254E4,1.8707246E3,4.319117E3,3.3509766E2,1.0950171E3,9.492012E2,2.2479214E3,5.0904297E1,8.27858E-1,8.684302E2,2.3812476E2,4.9113086E2,1.775311E3,1.0656066E3,2.9500862E3,0E0,3.3220703E1,1.844162E0,0E0,8.2900104E2,5.034441E2,1.6309265E2,1.1551376E1,4.9850195E2,1.1113118E3,9.0943506E2,1.2331804E3,7.4912415E0,6.5003723E2,1.1765704E3,1.9884678E3,0E0,0E0,0E0,0E0,0E0,0E0,0E0,0E0,0E0,0E0,0E0,0E0,0E0,0E0,0E0,0E0,0E0,0E0,0E0,0E0,0E0,0E0,0E0,0E0,0E0,0E0,0E0,0E0],"parents":[2147483647,0,0,1,1,2,2,3,3,4,4,5,5,6,6,7,7,8,8,9,9,10,10,11,11,12,12,13,13,14,14,16,16,17,17,19,19,20,20,21,21,22,22,23,23,24,24,25,25,26,26,27,27,28,28,29,29,30,30],"right_children":[2,4,6,8,10,12,14,16,18,20,22,24,26,28,30,-1,32,34,-1,36,38,40,42,44,46,48,50,52,54,56,58,-1,-1,-1,-1,-1,-1,-1,-1,-1,-1,-1,-1,-1,-1,-1,-1,-1,-1,-1,-1,-1,-1,-1,-1,-1,-1,-1,-1],"split_conditions":[-1.7859976E0,-1.7696148E0,7.413282E-1,2.144214E-1,2.1870494E0,6.888634E-1,-3.5429665E-1,-4.8604634E-1,2.2414032E-2,-1.1702472E-1,7.382561E-1,1.2022438E0,6.994106E-1,-1.0780927E0,7.65E0,-1.198568E-1,3.1570253E-1,-1.2256512E-1,-1.2282399E-1,-2.0593171E-1,1.66793E5,5.767415E-1,1.3126225E0,1.7888348E0,1.3465661E0,1.3500417E0,1.5378694E-1,-5.575814E-1,2.875973E-1,-6.6421276E-1,2.8E2,1.14913516E-1,-1.4183407E-1,-2.0590329E-1,-1.21768795E-1,-1.5205579E-1,7.900606E-2,-1.4210807E-1,6.79306E-2,1.0500403E-1,-1.4945692E-1,-1.473043E-1,-3.1329522E-1,-1.1648548E-1,6.119113E-2,-1.4252196E-1,2.1143518E-1,4.296373E-2,4.0353972E-1,-1.0857101E-1,1.488616E-3,-1.7354123E-1,-1.302226E-1,1.05299525E-1,-4.068177E-2,6.792166E-2,-3.513425E-2,-1.2083912E-1,1.27512505E-2],"split_indices":[14,10,4,30,4,7,20,4,27,22,13,26,7,11,29,0,12,26,0,21,0,10,18,22,12,16,4,12,12,9,29,0,0,0,0,0,0,0,0,0,0,0,0,0,0,0,0,0,0,0,0,0,0,0,0,0,0,0,0],"split_type":[0,0,0,0,0,0,0,0,0,0,0,0,0,0,0,0,0,0,0,0,0,0,0,0,0,0,0,0,0,0,0,0,0,0,0,0,0,0,0,0,0,0,0,0,0,0,0,0,0,0,0,0,0,0,0,0,0,0,0],"sum_hessian":[5.9400117E4,2.4515645E4,3.4884473E4,2.1158852E4,3.3567937E3,2.1660865E4,1.3223608E4,2.1114043E4,4.480729E1,1.8119634E3,1.5448303E3,1.6308396E4,5.3524688E3,2.422327E3,1.0801281E4,8.483753E0,2.110556E4,2.5786726E1,1.9020561E1,1.0724628E3,7.395007E2,1.5193611E3,2.5469229E1,1.5943744E4,3.6465308E2,3.062494E2,5.046219E3,2.2954623E2,2.1927808E3,4.4305176E3,6.3707637E3,2.1101318E4,4.2407017E0,1.4782249E1,1.1004477E1,1.8730212E2,8.851606E2,5.9923254E2,1.4026816E2,1.4945796E3,2.4781525E1,1.8577406E1,6.891823E0,1.5784813E4,1.5892984E2,2.1527579E2,1.4937727E2,1.9921858E2,1.0703082E2,3.6318276E3,1.4143917E3,7.51046E1,1.5444164E2,1.8272219E3,3.6555872E2,2.1800854E3,2.2504324E3,4.9316567E3,1.4391069E3],"tree_param":{"num_deleted":"0","num_feature":"33","num_nodes":"59","size_leaf_vector":"1"}},{"base_weights":[-7.7302905E-4,1.0119774E0,-6.959397E-1,1.1251382E0,3.2565597E-1,-9.7428364E-1,-2.579898E-1,1.1270124E0,-1.1471038E-1,-1.4805293E0,4.6228135E-1,-1.0433556E0,-2.707606E-1,3.193772E-1,-5.268431E-1,1.128574E0,-1.072677E-1,-1.3384967E0,-1.6914997E0,5.692029E-1,-1.23657905E-1,-6.7106473E-1,-1.1330767E0,5.5673265E-1,-1.1997122E0,7.616526E-1,-7.1004415E-1,1.9929165E-1,-8.593613E-1,1.128989E-1,-2.653226E-1,-1.4282382E-1,-1.1543478E-1,-1.8148723E-1,-1.346677E-1,-1.3521339E-1,6.639673E-2,3.394049E-2,-9.998115E-2,-1.15134835E-1,4.1906144E-2,9.327851E-2,-1.2904842E-1,-1.1621175E-1,-1.2800579E-1,1.0196813E-1,-7.448097E-2,9.6154764E-2,-1.338114E-1,4.3082137E-2,-1.453746E-1,-1.0392231E-1,1.1532522E-2],"categories":[],"categories_nodes":[],"categories_segments":[],"categories_sizes":[],"default_left":[0,0,0,0,0,0,0,0,0,0,0,0,0,0,0,0,0,0,0,0,0,0,0,0,0,0,0,0,0,0,0,0,0,0,0,0,0,0,0,0,0,0,0,0,0,0,0,0,0,0,0,0,0],"id":14,"left_children":[1,3,5,7,9,11,13,15,-1,17,19,21,23,25,27,29,-1,31,33,35,-1,37,39,41,43,45,47,49,51,-1,-1,-1,-1,-1,-1,-1,-1,-1,-1,-1,-1,-1,-1,-1,-1,-1,-1,-1,-1,-1,-1,-1,-1],"loss_changes":[3.908318E4,1.754498E3,4.0124814E3,8.389844E1,7.902572E2,9.7771875E2,1.9859803E3,6.7791016E1,0E0,4.485382E0,5.4116504E2,6.1138477E2,1.384847E3,1.8513225E3,2.1077842E3,3.338867E1,0E0,6.551819E-1,1.2501373E0,5.106845E2,0E0,1.1833899E3,4.1925E2,6.632236E2,1.0758057E0,1.1062227E3,1.2844022E3,1.0502607E3,1.0497568E3,0E0,0E0,0E0,0E0,0E0,0E0,0E0,0E0,0E0,0E0,0E0,0E0,0E0,0E0,0E0,0E0,0E0,0E0,0E0,0E0,0E0,0E0,0E0,0E0],"parents":[2147483647,0,0,1,1,2,2,3,3,4,4,5,5,6,6,7,7,9,9,10,10,11,11,12,12,13,13,14,14,15,15,17,17,18,18,19,19,21,21,22,22,23,23,24,24,25,25,26,26,27,27,28,28],"right_children":[2,4,6,8,10,12,14,16,-1,18,20,22,24,26,28,30,-1,32,34,36,-1,38,40,42,44,46,48,50,52,-1,-1,-1,-1,-1,-1,-1,-1,-1,-1,-1,-1,-1,-1,-1,-1,-1,-1,-1,-1,-1,-1,-1,-1],"split_conditions":[-1.7859976E0,-1.4160796E0,7.413282E-1,2.0917013E-1,-1.8385863E-1,3.0477E2,-4.254906E-1,5.767415E-1,-1.1471038E-1,7.191004E-1,4.7627756E-1,-6.485516E-1,-3.3360067E-1,-8.215705E-2,3.99E0,2.1790798E0,-1.072677E-1,-1.2256512E-1,2.1421788E-2,3.2883007E-2,-1.23657905E-1,-9.929215E-1,1.7888348E0,3.6313948E-1,1.5378694E-1,2.4884184E-1,-2.5575209E0,2.6875556E-1,1.278442E0,1.128989E-1,-2.653226E-1,-1.4282382E-1,-1.1543478E-1,-1.8148723E-1,-1.346677E-1,-1.3521339E-1,6.639673E-2,3.394049E-2,-9.998115E-2,-1.15134835E-1,4.1906144E-2,9.327851E-2,-1.2904842E-1,-1.1621175E-1,-1.2800579E-1,1.0196813E-1,-7.448097E-2,9.6154764E-2,-1.338114E-1,4.3082137E-2,-1.453746E-1,-1.0392231E-1,1.1532522E-2],"split_indices":[14,12,4,30,28,29,14,10,0,17,26,14,26,13,29,7,0,26,27,18,0,10,22,31,4,8,12,18,7,0,0,0,0,0,0,0,0,0,0,0,0,0,0,0,0,0,0,0,0,0,0,0,0],"split_type":[0,0,0,0,0,0,0,0,0,0,0,0,0,0,0,0,0,0,0,0,0,0,0,0,0,0,0,0,0,0,0,0,0,0,0,0,0,0,0,0,0,0,0,0,0,0,0,0,0,0,0,0,0],"sum_hessian":[5.551148E4,2.259443E4,3.291705E4,1.939581E4,3.1986208E3,2.0125098E4,1.2791955E4,1.9380328E4,1.5481326E1,2.2424667E2,2.9743743E3,1.8325424E4,1.7996726E3,4.0640818E3,8.727873E3,1.9367064E4,1.3262986E1,1.3840926E2,8.583742E1,2.798885E3,1.754891E2,3.5603813E3,1.4765043E4,9.520259E2,8.476467E2,2.842923E3,1.2211589E3,2.7415122E3,5.986361E3,1.9365643E4,1.4233896E0,8.851655E1,4.98927E1,6.007886E1,2.575856E1,1.3093448E2,2.6679507E3,8.739837E2,2.6863977E3,1.4593507E4,1.7153627E2,7.914078E2,1.6061807E2,5.879856E2,2.5966116E2,2.4274666E3,4.1545642E2,3.3337057E2,8.8778827E2,2.4053506E3,3.3616168E2,5.0537173E3,9.3264374E2],"tree_param":{"num_deleted":"0","num_feature":"33","num_nodes":"53","size_leaf_vector":"1"}},{"base_weights":[-9.7140693E-4,9.9071E-1,-6.684537E-1,1.1083169E0,2.9476506E-1,-9.504646E-1,-2.4215654E-1,1.1146513E0,-1.5046297E0,-1.9924788E-1,9.036111E-1,-1.0819261E0,-5.723114E-1,1.095282E-1,-6.5806586E-1,-1.1582984E-1,1.1156998E0,-1.6679465E0,-1.2038269E-1,-1.1740303E0,2.7484873E-1,9.564689E-1,-1.9254434E0,-1.112766E0,1.2955247E-1,5.4575914E-1,-8.3739084E-1,-2.6949653E-1,6.896908E-1,6.9273907E-1,-8.4312034E-1,1.1161884E-1,-2.2446881E-1,-1.9097821E-1,-1.1613921E-1,1.0787485E-1,-1.4549409E-1,7.00421E-2,-1.23180285E-1,9.909933E-2,-2.1760722E-1,-1.3595007E-1,-2.667434E-1,-1.1319808E-1,5.2508455E-2,-1.3288914E-1,1.975462E-1,-1.2027955E-1,1.2662007E-1,4.759904E-2,-1.0723206E-1,-8.9721166E-2,2.1003645E-2,9.27063E-2,-8.590065E-2,-1.287102E-1,1.6971281E-1,-1.0834675E-1,4.130688E-2],"categories":[],"categories_nodes":[],"categories_segments":[],"categories_sizes":[],"default_left":[0,0,0,0,0,0,0,0,0,0,0,0,0,0,0,0,0,0,0,0,0,0,0,0,0,0,0,0,0,0,0,0,0,0,0,0,0,0,0,0,0,0,0,0,0,0,0,0,0,0,0,0,0,0,0,0,0,0,0],"id":15,"left_children":[1,3,5,7,9,11,13,15,17,19,21,23,25,27,29,-1,31,33,-1,35,37,39,41,43,45,47,49,51,53,55,57,-1,-1,-1,-1,-1,-1,-1,-1,-1,-1,-1,-1,-1,-1,-1,-1,-1,-1,-1,-1,-1,-1,-1,-1,-1,-1,-1,-1],"loss_changes":[3.432928E4,1.7073711E3,3.72638E3,2.9708984E2,9.077761E2,9.2681836E2,1.8054946E3,4.3720703E1,1.3343811E-1,7.705563E2,2.0399121E2,5.1731934E2,1.4274161E3,1.4710303E3,1.4142664E3,0E0,3.1730469E1,9.2503357E-1,0E0,3.4680878E2,7.2035046E2,1.457467E2,6.924675E0,4.2541406E2,9.3013763E2,1.1646732E3,1.2014998E3,1.218207E3,9.7254956E2,1.3582781E3,1.5023237E3,0E0,0E0,0E0,0E0,0E0,0E0,0E0,0E0,0E0,0E0,0E0,0E0,0E0,0E0,0E0,0E0,0E0,0E0,0E0,0E0,0E0,0E0,0E0,0E0,0E0,0E0,0E0,0E0],"parents":[2147483647,0,0,1,1,2,2,3,3,4,4,5,5,6,6,7,7,8,8,9,9,10,10,11,11,12,12,13,13,14,14,16,16,17,17,19,19,20,20,21,21,22,22,23,23,24,24,25,25,26,26,27,27,28,28,29,29,30,30],"right_children":[2,4,6,8,10,12,14,16,18,20,22,24,26,28,30,-1,32,34,-1,36,38,40,42,44,46,48,50,52,54,56,58,-1,-1,-1,-1,-1,-1,-1,-1,-1,-1,-1,-1,-1,-1,-1,-1,-1,-1,-1,-1,-1,-1,-1,-1,-1,-1,-1,-1],"split_conditions":[-1.7859976E0,-1.7696148E0,7.413282E-1,2.144214E-1,2.1870494E0,6.888634E-1,-4.3405853E-2,-4.8604634E-1,2.2414032E-2,1.29767E5,7.382561E-1,1.2022438E0,-8.785603E-1,5.0019497E-1,-4.7247222E-1,-1.1582984E-1,-1.8931006E0,-1.2256512E-1,-1.2038269E-1,-2.7285745E0,-1.1814422E-1,1.55872E5,1.0786717E0,1.7888348E0,1.3465661E0,2.1493337E-1,-2.588338E0,3.906089E-2,1.2427965E0,-5.7694703E-1,1.0915551E0,1.1161884E-1,-2.2446881E-1,-1.9097821E-1,-1.1613921E-1,1.0787485E-1,-1.4549409E-1,7.00421E-2,-1.23180285E-1,9.909933E-2,-2.1760722E-1,-1.3595007E-1,-2.667434E-1,-1.1319808E-1,5.2508455E-2,-1.3288914E-1,1.975462E-1,-1.2027955E-1,1.2662007E-1,4.759904E-2,-1.0723206E-1,-8.9721166E-2,2.1003645E-2,9.27063E-2,-8.590065E-2,-1.287102E-1,1.6971281E-1,-1.0834675E-1,4.130688E-2],"split_indices":[14,10,4,30,4,7,12,4,27,0,13,26,19,11,20,0,14,26,0,7,26,0,18,22,12,18,3,28,13,20,31,0,0,0,0,0,0,0,0,0,0,0,0,0,0,0,0,0,0,0,0,0,0,0,0,0,0,0,0],"split_type":[0,0,0,0,0,0,0,0,0,0,0,0,0,0,0,0,0,0,0,0,0,0,0,0,0,0,0,0,0,0,0,0,0,0,0,0,0,0,0,0,0,0,0,0,0,0,0,0,0,0,0,0,0,0,0,0,0,0,0],"sum_hessian":[5.1860426E4,2.0863277E4,3.099715E4,1.7846781E4,3.0164966E3,1.8654979E4,1.234217E4,1.7804191E4,4.2588898E1,1.6656633E3,1.3508333E3,1.3841312E4,4.8136675E3,6.687819E3,5.6543516E3,7.699302E0,1.7796492E4,2.465683E1,1.793207E1,5.445488E2,1.1211145E3,1.3267072E3,2.4126118E1,1.3497787E4,3.4352417E2,9.22332E2,3.8913354E3,4.0454382E3,2.6423804E3,6.8095776E2,4.9733936E3,1.7794572E4,1.9199357E0,1.4814195E1,9.842634E0,6.0059322E1,4.844895E2,8.7460626E2,2.4650821E2,1.3129209E3,1.3786339E1,1.529347E1,8.832647E0,1.3341577E4,1.5621048E2,1.9205923E2,1.5146495E2,2.6893677E2,6.533952E2,5.90288E2,3.3010474E3,1.7516431E3,2.2937952E3,2.291551E3,3.508295E2,2.2909218E2,4.5186557E2,4.174771E3,7.986229E2],"tree_param":{"num_deleted":"0","num_feature":"33","num_nodes":"59","size_leaf_vector":"1"}},{"base_weights":[-1.1481208E-3,9.740011E-1,-6.413994E-1,1.0960345E0,2.8869864E-1,-9.2902386E-1,-2.2622146E-1,1.0979544E0,-1.11200824E-1,-9.076846E-2,8.701809E-1,-1.066119E0,-5.469059E-1,1.1437047E-1,-6.4647347E-1,1.0994958E0,-1.03471234E-1,-5.5598146E-1,7.280003E-1,9.519113E-1,-1.5404348E0,-1.0979047E0,1.17649175E-1,2.9238725E-1,-8.850069E-1,9.51484E-1,-1.7073739E-1,3.1538904E-1,-8.771827E-1,-2.9866567E-1,1.0999495E-1,1.6052041E-2,-1.3971725E-1,9.695293E-2,-1.6365068E-1,1.0049307E-1,-2.0189933E-1,-1.6546318E-1,-1.1083676E-1,-1.11793555E-1,4.7629945E-2,-1.2869768E-1,1.7610508E-1,1.1064638E-1,-1.1967857E-1,1.396309E-2,-1.1510333E-1,1.18642166E-1,-1.4118998E-1,1.624132E-2,-9.909808E-2,1.0235017E-1,-1.2538241E-1,5.6145757E-2,-1.0394783E-1],"categories":[],"categories_nodes":[],"categories_segments":[],"categories_sizes":[],"default_left":[0,0,0,0,0,0,0,0,0,0,0,0,0,0,0,0,0,0,0,0,0,0,0,0,0,0,0,0,0,0,0,0,0,0,0,0,0,0,0,0,0,0,0,0,0,0,0,0,0,0,0,0,0,0,0],"id":16,"left_children":[1,3,5,7,9,11,13,15,-1,17,19,21,23,25,27,29,-1,31,33,35,37,39,41,43,45,47,49,51,53,-1,-1,-1,-1,-1,-1,-1,-1,-1,-1,-1,-1,-1,-1,-1,-1,-1,-1,-1,-1,-1,-1,-1,-1,-1,-1],"loss_changes":[3.0224975E4,1.6043145E3,3.4895479E3,7.0265625E1,6.4033405E2,9.0378906E2,1.7121377E3,5.463086E1,0E0,6.695423E2,2.272348E2,4.7814648E2,1.2943357E3,1.5771904E3,1.1885183E3,3.3433594E1,0E0,6.7574146E2,3.653346E2,1.7670697E2,3.9009094E-2,3.9065527E2,7.7119556E2,1.5898131E3,8.863369E2,9.338612E2,1.3472916E3,1.1531436E3,1.0090017E3,0E0,0E0,0E0,0E0,0E0,0E0,0E0,0E0,0E0,0E0,0E0,0E0,0E0,0E0,0E0,0E0,0E0,0E0,0E0,0E0,0E0,0E0,0E0,0E0,0E0,0E0],"parents":[2147483647,0,0,1,1,2,2,3,3,4,4,5,5,6,6,7,7,9,9,10,10,11,11,12,12,13,13,14,14,15,15,17,17,18,18,19,19,20,20,21,21,22,22,23,23,24,24,25,25,26,26,27,27,28,28],"right_children":[2,4,6,8,10,12,14,16,-1,18,20,22,24,26,28,30,-1,32,34,36,38,40,42,44,46,48,50,52,54,-1,-1,-1,-1,-1,-1,-1,-1,-1,-1,-1,-1,-1,-1,-1,-1,-1,-1,-1,-1,-1,-1,-1,-1,-1,-1],"split_conditions":[-1.7859976E0,-1.4160796E0,7.413282E-1,2.0917013E-1,1.8959074E0,6.888634E-1,5.5887373E-3,5.767415E-1,-1.11200824E-1,1.0624E2,2.0826507E-1,1.2022438E0,-9.929215E-1,-5.824519E-1,-8.069166E-1,-7.378828E-1,-1.03471234E-1,-2.2042194E-1,1.6351584E-1,2.0129874E0,5.767415E-1,1.7888348E0,1.3465661E0,-5.171353E-1,-7.9407316E-1,-8.215705E-2,3.4057415E-1,-9.970623E-2,-1.8782043E0,-2.9866567E-1,1.0999495E-1,1.6052041E-2,-1.3971725E-1,9.695293E-2,-1.6365068E-1,1.0049307E-1,-2.0189933E-1,-1.6546318E-1,-1.1083676E-1,-1.11793555E-1,4.7629945E-2,-1.2869768E-1,1.7610508E-1,1.1064638E-1,-1.1967857E-1,1.396309E-2,-1.1510333E-1,1.18642166E-1,-1.4118998E-1,1.624132E-2,-9.909808E-2,1.0235017E-1,-1.2538241E-1,5.6145757E-2,-1.0394783E-1],"split_indices":[14,12,4,30,4,7,8,10,0,29,23,26,10,7,14,11,0,15,11,2,10,22,12,13,2,13,14,12,19,0,0,0,0,0,0,0,0,0,0,0,0,0,0,0,0,0,0,0,0,0,0,0,0,0,0],"split_type":[0,0,0,0,0,0,0,0,0,0,0,0,0,0,0,0,0,0,0,0,0,0,0,0,0,0,0,0,0,0,0,0,0,0,0,0,0,0,0,0,0,0,0,0,0,0,0,0,0,0,0,0,0,0,0],"sum_hessian":[4.8409035E4,1.9186334E4,2.9222701E4,1.6285701E4,2.9006326E3,1.7262473E4,1.1960229E4,1.6272056E4,1.3645794E1,1.7557191E3,1.1449135E3,1.27031045E4,4.559369E3,6.606632E3,5.3535967E3,1.6260788E4,1.1267944E1,1.1197905E3,6.3592847E2,1.1079541E3,3.695935E1,1.2370999E4,3.3210562E2,1.3093092E3,3.2500598E3,1.6778654E3,4.9287666E3,1.0356104E3,4.3179863E3,1.0745801E0,1.6259713E4,6.051504E2,5.146402E2,5.775255E2,5.8402946E1,1.0891781E3,1.8776009E1,2.699493E1,9.964419E0,1.2215849E4,1.5515025E2,1.7917795E2,1.5292766E2,8.46704E2,4.626052E2,6.6998676E2,2.580073E3,1.5266074E3,1.5125793E2,3.5056938E3,1.4230729E3,7.138368E2,3.217735E2,4.374886E2,3.8804976E3],"tree_param":{"num_deleted":"0","num_feature":"33","num_nodes":"55","size_leaf_vector":"1"}},{"base_weights":[-1.3172528E-3,9.576496E-1,-6.167338E-1,1.0816926E0,2.6376584E-1,-9.096473E-1,-2.1206628E-1,1.088319E0,-1.4115289E-1,-1.8826486E-1,8.4987986E-1,-1.0519469E0,-5.246748E-1,1.0496053E-1,-6.16064E-1,-1.1117505E-1,1.0894144E0,-1.1352466E0,2.501805E-1,9.050207E-1,-1.8347421E0,-1.0845605E0,1.08293325E-1,1.3713899E0,-6.7161447E-1,8.9407545E-1,-1.5660377E-1,-1.0698973E0,-1.7049463E-1,1.0901754E-1,-1.3878179E-1,1.04616605E-1,-1.395726E-1,6.388637E-2,-1.1948085E-1,9.53492E-2,-1.4474866E-1,-1.2087728E-1,-2.3591886E-1,-1.1055269E-1,4.317687E-2,-1.2907718E-1,1.5717666E-1,1.9475487E-1,-1.1094858E-1,-7.638642E-3,-1.1312797E-1,1.11230016E-1,-1.3648044E-1,2.630934E-2,-7.6018594E-2,1.1261173E-1,-1.21251166E-1,1.8262295E-2,-1.283375E-1],"categories":[],"categories_nodes":[],"categories_segments":[],"categories_sizes":[],"default_left":[0,0,0,0,0,0,0,0,0,0,0,0,0,0,0,0,0,0,0,0,0,0,0,0,0,0,0,0,0,0,0,0,0,0,0,0,0,0,0,0,0,0,0,0,0,0,0,0,0,0,0,0,0,0,0],"id":17,"left_children":[1,3,5,7,9,11,13,15,-1,17,19,21,23,25,27,-1,29,31,33,35,37,39,41,43,45,47,49,51,53,-1,-1,-1,-1,-1,-1,-1,-1,-1,-1,-1,-1,-1,-1,-1,-1,-1,-1,-1,-1,-1,-1,-1,-1,-1,-1],"loss_changes":[2.66409E4,1.5184902E3,3.2589766E3,2.4884766E2,7.095045E2,8.7321875E2,1.4789622E3,3.7189453E1,0E0,6.2823193E2,1.742608E2,4.4074512E2,1.2007708E3,1.3357142E3,1.0264928E3,0E0,2.9646484E1,2.735254E2,5.818337E2,1.3173419E2,4.9604263E0,3.6056055E2,6.557558E2,4.453736E2,1.0936595E3,7.956544E2,1.2315115E3,7.890425E2,1.0074747E3,0E0,0E0,0E0,0E0,0E0,0E0,0E0,0E0,0E0,0E0,0E0,0E0,0E0,0E0,0E0,0E0,0E0,0E0,0E0,0E0,0E0,0E0,0E0,0E0,0E0,0E0],"parents":[2147483647,0,0,1,1,2,2,3,3,4,4,5,5,6,6,7,7,9,9,10,10,11,11,12,12,13,13,14,14,16,16,17,17,18,18,19,19,20,20,21,21,22,22,23,23,24,24,25,25,26,26,27,27,28,28],"right_children":[2,4,6,8,10,12,14,16,-1,18,20,22,24,26,28,-1,30,32,34,36,38,40,42,44,46,48,50,52,54,-1,-1,-1,-1,-1,-1,-1,-1,-1,-1,-1,-1,-1,-1,-1,-1,-1,-1,-1,-1,-1,-1,-1,-1,-1,-1],"split_conditions":[-1.7859976E0,-1.7696148E0,7.413282E-1,2.144214E-1,2.1870494E0,6.888634E-1,5.5887373E-3,-4.8604634E-1,-1.4115289E-1,1.29767E5,7.382561E-1,1.2022438E0,6.994106E-1,-5.824519E-1,-9.067002E-3,-1.1117505E-1,3.1570253E-1,-2.0629342E0,-1.1814422E-1,5.767415E-1,8.183906E-1,1.7888348E0,5.057533E-1,-8.785603E-1,-2.137598E-1,-8.215705E-2,-2.1248002E-1,-1.6137081E0,7.464827E-2,1.0901754E-1,-1.3878179E-1,1.04616605E-1,-1.395726E-1,6.388637E-2,-1.1948085E-1,9.53492E-2,-1.4474866E-1,-1.2087728E-1,-2.3591886E-1,-1.1055269E-1,4.317687E-2,-1.2907718E-1,1.5717666E-1,1.9475487E-1,-1.1094858E-1,-7.638642E-3,-1.1312797E-1,1.11230016E-1,-1.3648044E-1,2.630934E-2,-7.6018594E-2,1.1261173E-1,-1.21251166E-1,1.8262295E-2,-1.283375E-1],"split_indices":[14,10,4,30,4,7,8,4,0,0,13,26,7,7,5,0,12,22,26,10,18,22,25,19,26,13,12,17,27,0,0,0,0,0,0,0,0,0,0,0,0,0,0,0,0,0,0,0,0,0,0,0,0,0,0],"split_type":[0,0,0,0,0,0,0,0,0,0,0,0,0,0,0,0,0,0,0,0,0,0,0,0,0,0,0,0,0,0,0,0,0,0,0,0,0,0,0,0,0,0,0,0,0,0,0,0,0,0,0,0,0,0,0],"sum_hessian":[4.5139516E4,1.7644535E4,2.7494982E4,1.4968173E4,2.6763623E3,1.5949145E4,1.1545838E4,1.4929058E4,3.911468E1,1.5113994E3,1.1649629E3,1.1643544E4,4.3056006E3,6.469671E3,5.076167E3,6.9243526E0,1.4922134E4,4.778088E2,1.0335907E3,1.1421663E3,2.2796677E1,1.1325262E4,3.182815E2,3.0907382E2,3.9965266E3,1.6100085E3,4.8596626E3,2.514069E3,2.5620981E3,1.491811E4,4.0231357E0,5.0646626E1,4.2716217E2,8.149403E2,2.1865038E2,1.1196908E3,2.2475512E1,1.1899052E1,1.0897626E1,1.1171069E4,1.5419252E2,1.627818E2,1.5549968E2,2.509972E2,5.8076633E1,1.7419775E3,2.254549E3,1.468635E3,1.413736E2,2.8668086E3,1.9928539E3,1.5289247E2,2.3611768E3,1.9455955E3,6.165026E2],"tree_param":{"num_deleted":"0","num_feature":"33","num_nodes":"55","size_leaf_vector":"1"}},{"base_weights":[-1.487997E-3,1.026692E0,-5.4434955E-1,1.0795165E0,3.7355986E-1,-8.4859985E-1,-1.4769705E-1,1.0806713E0,-1.556154E0,6.880633E-1,-1.3595098E0,-9.576558E-1,-2.7496925E-1,4.5747647E-1,-3.779272E-1,1.0811601E0,-1.1505621E-1,-2.403297E-1,-8.809494E-2,8.4870386E-1,-1.6596171E0,-1.5436563E0,-1.2207493E0,-5.1423347E-1,-1.0535014E0,1.606155E-1,-1.1384573E0,6.118769E-1,-1.2976619E0,8.113263E-2,-7.3369086E-1,-1.50743E-1,1.0814909E-1,9.38016E-2,-1.8575025E-1,-1.301619E-1,-2.0603482E-1,-1.7627527E-1,-1.2410169E-1,-1.17168725E-1,-1.6302976E-1,-7.492449E-2,7.531393E-2,7.6483577E-3,-1.0951644E-1,6.1926898E-2,-7.47424E-2,-1.1094522E-1,-1.3046925E-1,9.017817E-3,9.778871E-2,-1.4949627E-1,-1.2203431E-1,-9.442104E-2,4.070554E-2,3.694535E-2,-9.391848E-2],"categories":[],"categories_nodes":[],"categories_segments":[],"categories_sizes":[],"default_left":[0,0,0,0,0,0,0,0,0,0,0,0,0,0,0,0,0,0,0,0,0,0,0,0,0,0,0,0,0,0,0,0,0,0,0,0,0,0,0,0,0,0,0,0,0,0,0,0,0,0,0,0,0,0,0,0,0],"id":18,"left_children":[1,3,5,7,9,11,13,15,17,19,21,23,25,27,29,31,-1,-1,-1,33,35,37,39,41,43,45,47,49,51,53,55,-1,-1,-1,-1,-1,-1,-1,-1,-1,-1,-1,-1,-1,-1,-1,-1,-1,-1,-1,-1,-1,-1,-1,-1,-1,-1],"loss_changes":[2.3505703E4,5.0165234E2,3.3259932E3,4.2658203E1,5.95261E2,9.754551E2,1.6672502E3,1.5920898E1,1.4897251E0,3.497185E2,2.4037476E0,5.5642676E2,9.378409E2,8.945089E2,1.4157085E3,1.3151367E1,0E0,0E0,0E0,2.1083148E2,5.852249E0,2.3434906E0,1.0882568E-1,6.94894E2,5.0735254E2,6.9095276E2,2.5836182E0,5.7885E2,2.248413E0,1.2654407E3,1.1074053E3,0E0,0E0,0E0,0E0,0E0,0E0,0E0,0E0,0E0,0E0,0E0,0E0,0E0,0E0,0E0,0E0,0E0,0E0,0E0,0E0,0E0,0E0,0E0,0E0,0E0,0E0],"parents":[2147483647,0,0,1,1,2,2,3,3,4,4,5,5,6,6,7,7,8,8,9,9,10,10,11,11,12,12,13,13,14,14,15,15,19,19,20,20,21,21,22,22,23,23,24,24,25,25,26,26,27,27,28,28,29,29,30,30],"right_children":[2,4,6,8,10,12,14,16,18,20,22,24,26,28,30,32,-1,-1,-1,34,36,38,40,42,44,46,48,50,52,54,56,-1,-1,-1,-1,-1,-1,-1,-1,-1,-1,-1,-1,-1,-1,-1,-1,-1,-1,-1,-1,-1,-1,-1,-1,-1,-1],"split_conditions":[-2.635484E0,-1.4160796E0,7.413282E-1,2.1790798E0,5.2214855E-1,1.0663408E0,-8.069166E-1,1.2646441E0,-8.506472E-1,1.0663408E0,2.2414032E-2,-8.069166E-1,-1.3659415E-1,1.2329714E0,-1.1611094E-1,-7.0277715E-1,-1.1505621E-1,-2.403297E-1,-8.809494E-2,1.74E1,-1.5499063E-1,5.1615554E-1,1.8959074E0,1.327541E0,-9.853448E-1,-7.0378727E-1,1.5378694E-1,5.289008E-1,-2.2188422E-1,-5.414681E-1,-3.5429665E-1,-1.50743E-1,1.0814909E-1,9.38016E-2,-1.8575025E-1,-1.301619E-1,-2.0603482E-1,-1.7627527E-1,-1.2410169E-1,-1.17168725E-1,-1.6302976E-1,-7.492449E-2,7.531393E-2,7.6483577E-3,-1.0951644E-1,6.1926898E-2,-7.47424E-2,-1.1094522E-1,-1.3046925E-1,9.017817E-3,9.778871E-2,-1.4949627E-1,-1.2203431E-1,-9.442104E-2,4.070554E-2,3.694535E-2,-9.391848E-2],"split_indices":[14,12,4,7,15,7,14,9,10,7,27,14,26,3,8,11,0,0,0,29,4,10,4,11,20,10,4,31,12,6,20,0,0,0,0,0,0,0,0,0,0,0,0,0,0,0,0,0,0,0,0,0,0,0,0,0,0],"split_type":[0,0,0,0,0,0,0,0,0,0,0,0,0,0,0,0,0,0,0,0,0,0,0,0,0,0,0,0,0,0,0,0,0,0,0,0,0,0,0,0,0,0,0,0,0,0,0,0,0,0,0,0,0,0,0,0,0],"sum_hessian":[4.2110887E4,1.455079E4,2.7560096E4,1.3461397E4,1.0893926E3,1.5596068E4,1.1964026E4,1.3456092E4,5.30584E0,9.225743E2,1.6681834E2,1.3104107E4,2.4919607E3,3.296912E3,8.667114E3,1.3453659E4,2.4319022E0,1.2181417E0,4.0876985E0,8.640874E2,5.8486874E1,6.733486E1,9.9483475E1,2.3301614E3,1.0773946E4,1.6569366E3,8.350242E2,3.030931E3,2.659812E2,3.784524E3,4.8825903E3,1.1369263E0,1.3452522E4,8.371138E2,2.6973635E1,3.3134167E1,2.5352707E1,3.6259884E1,3.1074978E1,9.228863E1,7.194849E0,1.9660093E3,3.6415216E2,3.830845E2,1.0390862E4,1.1010906E3,5.5584607E2,7.1750574E2,1.1751842E2,1.2501931E3,1.7807377E3,6.9724464E1,1.9625674E2,9.1236255E2,2.8721616E3,7.665821E2,4.1160083E3],"tree_param":{"num_deleted":"0","num_feature":"33","num_nodes":"57","size_leaf_vector":"1"}},{"base_weights":[-1.5436853E-3,1.0152636E0,-5.1962465E-1,1.069748E0,3.5914814E-1,-8.248352E-1,-1.3793105E-1,1.0709424E0,-1.4881488E0,6.621916E-1,-1.3195096E0,-9.365423E-1,-2.5946602E-1,4.2490596E-1,-3.5224542E-1,1.0714395E0,-1.1269142E-1,-2.133274E-1,-8.61604E-2,8.176635E-1,-1.5868691E0,-1.4740081E0,-1.19745485E-1,-4.805324E-1,-1.0405253E0,1.4668109E-1,-1.1244981E0,5.664189E-1,-1.2655709E0,-5.9525117E-2,-8.831149E-1,-1.4464168E-1,1.071785E-1,9.040482E-2,-1.7848934E-1,-1.2679946E-1,-1.9206366E-1,-1.6544457E-1,-1.20782696E-1,-1.16700865E-1,-2.3369119E-3,6.8822927E-3,-1.08536385E-1,-1.2890114E-1,4.179086E-2,-1.0983886E-1,-1.2699276E-1,6.925932E-2,-9.118988E-2,-1.4342552E-1,-1.196801E-1,2.7496532E-2,-7.541479E-2,-1.04535654E-1,1.7922927E-1],"categories":[],"categories_nodes":[],"categories_segments":[],"categories_sizes":[],"default_left":[0,0,0,0,0,0,0,0,0,0,0,0,0,0,0,0,0,0,0,0,0,0,0,0,0,0,0,0,0,0,0,0,0,0,0,0,0,0,0,0,0,0,0,0,0,0,0,0,0,0,0,0,0,0,0],"id":19,"left_children":[1,3,5,7,9,11,13,15,17,19,21,23,25,27,29,31,-1,-1,-1,33,35,37,-1,39,41,43,45,47,49,51,53,-1,-1,-1,-1,-1,-1,-1,-1,-1,-1,-1,-1,-1,-1,-1,-1,-1,-1,-1,-1,-1,-1,-1,-1],"loss_changes":[2.0768525E4,4.753291E2,3.0424922E3,3.9128906E1,5.206854E2,9.163096E2,1.4001029E3,1.4625E1,6.4892673E-1,3.0419083E2,1.1878662E0,5.7409375E2,8.4185767E2,7.664759E2,1.306195E3,1.2231445E1,0E0,0E0,0E0,1.839184E2,3.5618744E0,1.1131134E0,0E0,7.067133E2,4.9086816E2,6.3571484E2,1.512146E0,5.517099E2,1.1553955E0,1.2593658E3,1.2986599E3,0E0,0E0,0E0,0E0,0E0,0E0,0E0,0E0,0E0,0E0,0E0,0E0,0E0,0E0,0E0,0E0,0E0,0E0,0E0,0E0,0E0,0E0,0E0,0E0],"parents":[2147483647,0,0,1,1,2,2,3,3,4,4,5,5,6,6,7,7,8,8,9,9,10,10,11,11,12,12,13,13,14,14,15,15,19,19,20,20,21,21,23,23,24,24,25,25,26,26,27,27,28,28,29,29,30,30],"right_children":[2,4,6,8,10,12,14,16,18,20,22,24,26,28,30,32,-1,-1,-1,34,36,38,-1,40,42,44,46,48,50,52,54,-1,-1,-1,-1,-1,-1,-1,-1,-1,-1,-1,-1,-1,-1,-1,-1,-1,-1,-1,-1,-1,-1,-1,-1],"split_conditions":[-2.635484E0,-1.4160796E0,7.413282E-1,2.1790798E0,5.2214855E-1,1.0663408E0,-8.069166E-1,1.2646441E0,-8.506472E-1,1.0663408E0,2.2414032E-2,-8.069166E-1,-1.3659415E-1,1.2329714E0,2.6097083E-1,-7.0277715E-1,-1.1269142E-1,-2.133274E-1,-8.61604E-2,1.74E1,-1.5499063E-1,5.1615554E-1,-1.19745485E-1,2.5682387E-1,-9.853448E-1,-3.514206E-2,1.5378694E-1,1.5458822E0,-2.2188422E-1,8.30052E-2,1.5572423E0,-1.4464168E-1,1.071785E-1,9.040482E-2,-1.7848934E-1,-1.2679946E-1,-1.9206366E-1,-1.6544457E-1,-1.20782696E-1,-1.16700865E-1,-2.3369119E-3,6.8822927E-3,-1.08536385E-1,-1.2890114E-1,4.179086E-2,-1.0983886E-1,-1.2699276E-1,6.925932E-2,-9.118988E-2,-1.4342552E-1,-1.196801E-1,2.7496532E-2,-7.541479E-2,-1.04535654E-1,1.7922927E-1],"split_indices":[14,12,4,7,15,7,14,9,10,7,27,14,26,3,30,11,0,0,0,29,4,10,0,30,20,21,4,1,12,8,13,0,0,0,0,0,0,0,0,0,0,0,0,0,0,0,0,0,0,0,0,0,0,0,0],"split_type":[0,0,0,0,0,0,0,0,0,0,0,0,0,0,0,0,0,0,0,0,0,0,0,0,0,0,0,0,0,0,0,0,0,0,0,0,0,0,0,0,0,0,0,0,0,0,0,0,0,0,0,0,0,0,0],"sum_hessian":[3.9422793E4,1.33063125E4,2.611648E4,1.2285481E4,1.0208305E3,1.451156E4,1.1604921E4,1.2280329E4,5.1528063E0,8.652371E2,1.5559338E2,1.2116828E4,2.3947307E3,3.200008E3,8.404913E3,1.2278064E4,2.264297E0,1.3539168E0,3.7988896E0,8.0988806E2,5.5349052E1,6.3781418E1,9.1811966E1,2.250973E3,9.865855E3,1.6301693E3,7.6456146E2,2.9534355E3,2.465726E2,5.4183555E3,2.9865576E3,1.1100157E0,1.2276954E4,7.8450134E2,2.5386732E1,3.0760313E1,2.458874E1,3.4904808E1,2.887661E1,8.991926E2,1.3517802E3,3.832545E2,9.482602E3,2.5843567E2,1.3717336E3,6.5544006E2,1.0912136E2,2.7216724E3,2.3176308E2,6.5660164E1,1.8091245E2,3.657647E3,1.7607086E3,2.8163767E3,1.7018097E2],"tree_param":{"num_deleted":"0","num_feature":"33","num_nodes":"55","size_leaf_vector":"1"}},{"base_weights":[-1.750851E-3,1.004599E0,-4.9595192E-1,1.060895E0,3.4509537E-1,-8.0153275E-1,-1.2910892E-1,1.0621306E0,-1.4248624E0,6.363644E-1,-1.2855829E0,-9.161194E-1,-2.4474283E-1,8.835083E-1,-2.3531036E-1,1.0626374E0,-1.10247746E-1,-1.9180964E-1,-8.4262736E-2,7.8640133E-1,-1.5238569E0,-1.4151243E0,-1.1778362E-1,-4.499259E-1,-1.0282935E0,1.3309236E-1,-1.1120757E0,1.0924277E0,-2.2298388E0,-7.7771235E-1,4.1105498E-2,-1.3856857E-1,1.06299914E-1,8.697269E-2,-1.7193389E-1,-1.2375804E-1,-1.8045236E-1,-1.5653382E-1,-1.1784198E-1,-1.1527751E-1,-2.105153E-3,6.193227E-3,-1.0766405E-1,-1.2860309E-1,3.837187E-2,-1.0885336E-1,-1.239378E-1,1.1475902E-1,-1.535598E-1,-1.7387652E-1,-5.2919376E-1,4.3333825E-2,-9.9184446E-2,-4.095259E-2,4.220499E-2],"categories":[],"categories_nodes":[],"categories_segments":[],"categories_sizes":[],"default_left":[0,0,0,0,0,0,0,0,0,0,0,0,0,0,0,0,0,0,0,0,0,0,0,0,0,0,0,0,0,0,0,0,0,0,0,0,0,0,0,0,0,0,0,0,0,0,0,0,0,0,0,0,0,0,0],"id":20,"left_children":[1,3,5,7,9,11,13,15,17,19,21,23,25,27,29,31,-1,-1,-1,33,35,37,-1,39,41,43,45,47,49,51,53,-1,-1,-1,-1,-1,-1,-1,-1,-1,-1,-1,-1,-1,-1,-1,-1,-1,-1,-1,-1,-1,-1,-1,-1],"loss_changes":[1.8365545E4,4.5117676E2,2.7761284E3,3.592578E1,4.5583313E2,8.6177246E2,1.2106782E3,1.3459961E1,1.04979515E-1,2.648579E2,3.642578E-1,5.8547266E2,7.562725E2,6.9752576E2,1.5275344E3,1.1387695E1,0E0,0E0,0E0,1.604509E2,2.0389404E0,3.2824707E-1,0E0,6.55558E2,4.760625E2,5.724342E2,7.494507E-1,1.4703748E2,9.234497E1,8.9234546E2,1.1588855E3,0E0,0E0,0E0,0E0,0E0,0E0,0E0,0E0,0E0,0E0,0E0,0E0,0E0,0E0,0E0,0E0,0E0,0E0,0E0,0E0,0E0,0E0,0E0,0E0],"parents":[2147483647,0,0,1,1,2,2,3,3,4,4,5,5,6,6,7,7,8,8,9,9,10,10,11,11,12,12,13,13,14,14,15,15,19,19,20,20,21,21,23,23,24,24,25,25,26,26,27,27,28,28,29,29,30,30],"right_children":[2,4,6,8,10,12,14,16,18,20,22,24,26,28,30,32,-1,-1,-1,34,36,38,-1,40,42,44,46,48,50,52,54,-1,-1,-1,-1,-1,-1,-1,-1,-1,-1,-1,-1,-1,-1,-1,-1,-1,-1,-1,-1,-1,-1,-1,-1],"split_conditions":[-2.635484E0,-1.4160796E0,7.413282E-1,2.1790798E0,5.2214855E-1,1.0663408E0,-1.4045628E0,1.2646441E0,-8.506472E-1,1.0663408E0,2.2414032E-2,-8.069166E-1,-1.3659415E-1,4.6772346E-1,-9.0252206E-2,-7.0277715E-1,-1.10247746E-1,-1.9180964E-1,-8.4262736E-2,1.74E1,-1.5499063E-1,5.1615554E-1,-1.1778362E-1,2.5682387E-1,-9.853448E-1,-1.7542376E-1,1.5378694E-1,3.0202103E0,-1.1256826E-3,-4.437412E-1,3.2647577E-1,-1.3856857E-1,1.06299914E-1,8.697269E-2,-1.7193389E-1,-1.2375804E-1,-1.8045236E-1,-1.5653382E-1,-1.1784198E-1,-1.1527751E-1,-2.105153E-3,6.193227E-3,-1.0766405E-1,-1.2860309E-1,3.837187E-2,-1.0885336E-1,-1.239378E-1,1.1475902E-1,-1.535598E-1,-1.7387652E-1,-5.2919376E-1,4.3333825E-2,-9.9184446E-2,-4.095259E-2,4.220499E-2],"split_indices":[14,12,4,7,15,7,10,9,10,7,27,14,26,16,5,11,0,0,0,29,4,10,0,30,20,27,4,7,1,21,17,0,0,0,0,0,0,0,0,0,0,0,0,0,0,0,0,0,0,0,0,0,0,0,0],"split_type":[0,0,0,0,0,0,0,0,0,0,0,0,0,0,0,0,0,0,0,0,0,0,0,0,0,0,0,0,0,0,0,0,0,0,0,0,0,0,0,0,0,0,0,0,0,0,0,0,0,0,0,0,0,0,0],"sum_hessian":[3.6925605E4,1.2160976E4,2.4764629E4,1.1203981E4,9.5699475E2,1.3509777E4,1.1254852E4,1.1198987E4,4.9935718E0,8.124806E2,1.4451418E2,1.1203472E4,2.306306E3,1.0676477E3,1.0187204E4,1.1196875E4,2.1130397E0,1.4612893E0,3.5322826E0,7.603097E2,5.2170895E1,6.01107E1,8.440348E1,2.1738784E3,9.029593E3,1.6070675E3,6.9923834E2,1.0011174E3,6.653031E1,3.4383757E3,6.748828E3,1.0878139E0,1.1195787E4,7.3647205E2,2.383764E1,2.8505293E1,2.36656E1,3.3339943E1,2.6770754E1,8.231665E2,1.3507119E3,3.834101E2,8.646183E3,2.4059775E2,1.3664697E3,5.9816974E2,1.0106861E2,9.8108765E2,2.002975E1,5.8686497E1,7.84381E0,5.164581E2,2.9219175E3,3.0916E3,3.657228E3],"tree_param":{"num_deleted":"0","num_feature":"33","num_nodes":"55","size_leaf_vector":"1"}},{"base_weights":[-1.7854602E-3,9.945217E-1,-4.7180912E-1,1.0528277E0,3.311028E-1,-7.782609E-1,-1.19834304E-1,1.054106E0,-1.3664794E-1,6.104759E-1,-1.2558338E-1,-2.588192E-1,-9.052488E-1,2.818857E-1,-3.5826954E-1,1.0546244E0,-1.0771891E-1,7.548273E-1,-1.4686795E0,-1.1586778E0,2.396898E-1,1.720769E-1,-9.662503E-1,-1.2810752E0,4.2811736E-1,2.934576E-1,-7.013447E-1,-1.3258456E-1,1.0550038E-1,1.0572886E-1,6.2737004E-3,-1.2098777E-1,-1.7062794E-1,-1.10406294E-1,-1.3615426E-1,-7.836249E-2,8.095691E-2,8.859525E-2,-1.1783983E-1,-1.00457214E-1,2.9521873E-2,-1.697377E-1,-1.1881935E-1,6.97701E-2,-2.6233131E-2,4.8769306E-2,-1.3157539E-1,-9.152309E-2,1.9684874E-2],"categories":[],"categories_nodes":[],"categories_segments":[],"categories_sizes":[],"default_left":[0,0,0,0,0,0,0,0,0,0,0,0,0,0,0,0,0,0,0,0,0,0,0,0,0,0,0,0,0,0,0,0,0,0,0,0,0,0,0,0,0,0,0,0,0,0,0,0,0],"id":21,"left_children":[1,3,5,7,9,11,13,15,-1,17,-1,19,21,23,25,27,-1,29,31,33,35,37,39,41,43,45,47,-1,-1,-1,-1,-1,-1,-1,-1,-1,-1,-1,-1,-1,-1,-1,-1,-1,-1,-1,-1,-1,-1],"loss_changes":[1.6230938E4,4.2940625E2,2.5400933E3,3.302246E1,3.993413E2,8.3016797E2,1.0500966E3,1.2415039E1,0E0,2.3074014E2,0E0,1.1102804E3,6.6494434E2,9.338623E2,1.5384124E3,1.0615234E1,0E0,1.4983487E2,1.0108414E0,8.272217E0,9.297029E2,5.2446423E2,4.6310156E2,1.1502014E1,6.953792E2,7.4243463E2,8.660835E2,0E0,0E0,0E0,0E0,0E0,0E0,0E0,0E0,0E0,0E0,0E0,0E0,0E0,0E0,0E0,0E0,0E0,0E0,0E0,0E0,0E0,0E0],"parents":[2147483647,0,0,1,1,2,2,3,3,4,4,5,5,6,6,7,7,9,9,11,11,12,12,13,13,14,14,15,15,17,17,18,18,19,19,20,20,21,21,22,22,23,23,24,24,25,25,26,26],"right_children":[2,4,6,8,10,12,14,16,-1,18,-1,20,22,24,26,28,-1,30,32,34,36,38,40,42,44,46,48,-1,-1,-1,-1,-1,-1,-1,-1,-1,-1,-1,-1,-1,-1,-1,-1,-1,-1,-1,-1,-1,-1],"split_conditions":[-2.635484E0,-1.4160796E0,7.413282E-1,2.1790798E0,5.2214855E-1,-9.746951E-1,-4.254906E-1,1.2646441E0,-1.3664794E-1,1.0663408E0,-1.2558338E-1,-7.6918113E-1,-9.853448E-1,-1.0503635E0,3.99E0,-7.0277715E-1,-1.0771891E-1,-3.6156354E0,-1.5499063E-1,1.3146542E0,6.888634E-1,-8.945301E-1,1.2022438E0,-5.575814E-1,-8.215705E-2,2.6875556E-1,1.278442E0,-1.3258456E-1,1.0550038E-1,1.0572886E-1,6.2737004E-3,-1.2098777E-1,-1.7062794E-1,-1.10406294E-1,-1.3615426E-1,-7.836249E-2,8.095691E-2,8.859525E-2,-1.1783983E-1,-1.00457214E-1,2.9521873E-2,-1.697377E-1,-1.1881935E-1,6.97701E-2,-2.6233131E-2,4.8769306E-2,-1.3157539E-1,-9.152309E-2,1.9684874E-2],"split_indices":[14,12,4,7,15,10,14,9,0,7,0,1,20,11,29,11,0,14,4,7,7,16,26,12,13,18,7,0,0,0,0,0,0,0,0,0,0,0,0,0,0,0,0,0,0,0,0,0,0],"split_type":[0,0,0,0,0,0,0,0,0,0,0,0,0,0,0,0,0,0,0,0,0,0,0,0,0,0,0,0,0,0,0,0,0,0,0,0,0,0,0,0,0,0,0,0,0,0,0,0,0],"sum_hessian":[3.4658168E4,1.1109113E4,2.3549055E4,1.0211101E4,8.980121E2,1.258796E4,1.0961095E4,1.0206272E4,4.828499E0,7.641094E2,1.3390274E2,2.473439E3,1.0114521E4,4.082553E3,6.8785415E3,1.0204295E4,1.9769207E0,7.150985E2,4.9010834E1,8.8129285E2,1.5921461E3,5.4192694E2,9.572594E3,3.4862286E2,3.73393E3,2.3722368E3,4.5063047E3,1.0693393E0,1.0203226E4,4.9725687E2,2.1784164E2,2.6374699E1,2.2636135E1,6.994346E2,1.8185825E2,5.6937036E2,1.02277576E3,3.5474756E2,1.8717938E2,9.290562E3,2.8203217E2,6.0442272E1,2.8818057E2,2.6854094E3,1.0485205E3,2.1173633E3,2.5487363E2,3.6395925E3,8.6671234E2],"tree_param":{"num_deleted":"0","num_feature":"33","num_nodes":"49","size_leaf_vector":"1"}},{"base_weights":[-1.8401047E-3,9.8512506E-1,-4.4903865E-1,1.0454608E0,3.1874537E-1,-7.553917E-1,-1.1190527E-1,1.0467557E0,-1.3306813E-1,5.8614814E-1,-1.2317711E-1,-2.867338E-1,-8.994912E-1,1.4931491E-1,-4.655694E-1,1.0472872E0,-1.0510768E-1,7.185998E-1,-1.5672649E0,-1.1422483E0,1.4716369E-1,1.7944416E-1,-9.6441597E-1,3.0579296E-1,-8.347683E-1,3.3278334E-1,-7.1480376E-1,1.047815E-1,-8.665868E-2,-1.3310196E-1,8.253239E-2,-1.2536293E-1,-2.204793E-1,-1.09307505E-1,-1.331482E-1,-5.573939E-2,7.098001E-2,8.295719E-2,-1.1562394E-1,-1.0072342E-1,2.8598858E-2,4.2895492E-2,-1.346007E-1,1.2356519E-1,-1.2646243E-1,-1.15600966E-1,1.03353776E-1,-9.9486694E-2,4.8066568E-2],"categories":[],"categories_nodes":[],"categories_segments":[],"categories_sizes":[],"default_left":[0,0,0,0,0,0,0,0,0,0,0,0,0,0,0,0,0,0,0,0,0,0,0,0,0,0,0,0,0,0,0,0,0,0,0,0,0,0,0,0,0,0,0,0,0,0,0,0,0],"id":22,"left_children":[1,3,5,7,9,11,13,15,-1,17,-1,19,21,23,25,27,-1,29,31,33,35,37,39,41,43,45,47,-1,-1,-1,-1,-1,-1,-1,-1,-1,-1,-1,-1,-1,-1,-1,-1,-1,-1,-1,-1,-1,-1],"loss_changes":[1.4359366E4,4.075459E2,2.3123013E3,3.0011719E1,3.505293E2,7.91897E2,9.849071E2,1.1469727E1,0E0,2.0656468E2,0E0,1.0246665E3,6.285825E2,9.445406E2,9.0140656E2,1.0295898E1,0E0,1.4967438E2,5.6439056E0,7.187622E0,7.2664685E2,4.4384872E2,4.5333887E2,1.0771053E3,7.505469E2,1.1260493E3,1.1561713E3,0E0,0E0,0E0,0E0,0E0,0E0,0E0,0E0,0E0,0E0,0E0,0E0,0E0,0E0,0E0,0E0,0E0,0E0,0E0,0E0,0E0,0E0],"parents":[2147483647,0,0,1,1,2,2,3,3,4,4,5,5,6,6,7,7,9,9,11,11,12,12,13,13,14,14,15,15,17,17,18,18,19,19,20,20,21,21,22,22,23,23,24,24,25,25,26,26],"right_children":[2,4,6,8,10,12,14,16,-1,18,-1,20,22,24,26,28,-1,30,32,34,36,38,40,42,44,46,48,-1,-1,-1,-1,-1,-1,-1,-1,-1,-1,-1,-1,-1,-1,-1,-1,-1,-1,-1,-1,-1,-1],"split_conditions":[-2.635484E0,-1.4160796E0,7.413282E-1,2.1790798E0,5.2214855E-1,-8.771465E-1,-4.3405853E-2,1.2646441E0,-1.3306813E-1,1.74E1,-1.2317711E-1,-7.6918113E-1,-9.853448E-1,1.2776982E0,9.120405E-1,2.0917013E-1,-1.0510768E-1,6.8554574E-1,2.4474049E0,1.3146542E0,-2.9450953E-1,-8.945301E-1,1.2022438E0,1.7412779E0,-2.450811E0,1.1735835E0,9.2340004E-1,1.047815E-1,-8.665868E-2,-1.3310196E-1,8.253239E-2,-1.2536293E-1,-2.204793E-1,-1.09307505E-1,-1.331482E-1,-5.573939E-2,7.098001E-2,8.295719E-2,-1.1562394E-1,-1.0072342E-1,2.8598858E-2,4.2895492E-2,-1.346007E-1,1.2356519E-1,-1.2646243E-1,-1.15600966E-1,1.03353776E-1,-9.9486694E-2,4.8066568E-2],"split_indices":[14,12,4,7,15,10,12,9,0,29,0,1,20,3,4,30,0,4,4,7,4,16,26,1,19,1,22,0,0,0,0,0,0,0,0,0,0,0,0,0,0,0,0,0,0,0,0,0,0],"split_type":[0,0,0,0,0,0,0,0,0,0,0,0,0,0,0,0,0,0,0,0,0,0,0,0,0,0,0,0,0,0,0,0,0,0,0,0,0,0,0,0,0,0,0,0,0,0,0,0,0],"sum_hessian":[3.253167E4,1.0143597E4,2.2388074E4,9.300899E3,8.426971E2,1.1728838E4,1.0659236E4,9.296394E3,4.5062323E0,7.192729E2,1.2342417E2,2.7589219E3,8.969916E3,6.1312246E3,4.528011E3,9.294538E3,1.8546278E0,6.782232E2,4.1049698E1,9.2785E2,1.8310719E3,5.0902698E2,8.46089E3,5.290653E3,8.405719E2,1.077192E3,3.4508193E3,9.292429E3,2.1097891E0,3.2999603E1,6.4522363E2,2.9502277E1,1.1547419E1,7.4185254E2,1.8599745E2,8.1300336E2,1.01806854E3,3.426333E2,1.6639368E2,8.18094E3,2.7994962E2,4.9242314E3,3.6642148E2,1.4419167E2,6.963802E2,3.4454236E2,7.3264966E2,2.7959731E3,6.5484607E2],"tree_param":{"num_deleted":"0","num_feature":"33","num_nodes":"49","size_leaf_vector":"1"}},{"base_weights":[-2.0824363E-3,1.0305644E0,-4.0744573E-1,1.0368533E0,-1.0841327E-1,-5.5973774E-1,2.9531324E-1,1.0379984E0,-2.2232728E-1,-7.745151E-2,-7.3584145E-1,-2.5361556E-1,8.646826E-1,1.0442725E0,5.9891427E-1,-8.295481E-1,2.7789077E-1,-8.686076E-1,3.1059502E-2,-7.5680894E-1,6.36323E-1,9.4212943E-1,-1.283783E-1,1.0448878E-1,-8.244064E-2,9.201442E-2,-3.1300876E-1,5.469236E-3,-1.0596838E-1,-5.3670716E-2,5.912472E-2,8.40346E-3,-9.925058E-2,7.408493E-2,-5.7648897E-2,7.154283E-2,-1.1760568E-1,1.0126563E-1,-1.4711569E-1,1.069312E-1,-9.204614E-3],"categories":[],"categories_nodes":[],"categories_segments":[],"categories_sizes":[],"default_left":[0,0,0,0,0,0,0,0,0,0,0,0,0,0,0,0,0,0,0,0,0,0,0,0,0,0,0,0,0,0,0,0,0,0,0,0,0,0,0,0,0],"id":23,"left_children":[1,3,5,7,-1,9,11,13,-1,15,17,19,21,23,25,27,29,31,33,35,37,39,-1,-1,-1,-1,-1,-1,-1,-1,-1,-1,-1,-1,-1,-1,-1,-1,-1,-1,-1],"loss_changes":[1.2776877E4,1.1555176E2,2.3460237E3,3.4336914E1,0E0,1.5300234E3,1.2205745E3,2.300293E1,0E0,1.2883246E3,1.3436748E3,8.9106885E2,3.20156E2,1.0582031E1,1.50426E2,3.148175E2,8.3604016E2,1.3278213E3,8.406415E2,7.85271E2,5.716393E2,2.4352246E2,0E0,0E0,0E0,0E0,0E0,0E0,0E0,0E0,0E0,0E0,0E0,0E0,0E0,0E0,0E0,0E0,0E0,0E0,0E0],"parents":[2147483647,0,0,1,1,2,2,3,3,5,5,6,6,7,7,9,9,10,10,11,11,12,12,13,13,14,14,15,15,16,16,17,17,18,18,19,19,20,20,21,21],"right_children":[2,4,6,8,-1,10,12,14,-1,16,18,20,22,24,26,28,30,32,34,36,38,40,-1,-1,-1,-1,-1,-1,-1,-1,-1,-1,-1,-1,-1,-1,-1,-1,-1,-1,-1],"split_conditions":[-3.6156354E0,5.767415E-1,2.4474049E0,1.9602777E0,-1.0841327E-1,-8.069166E-1,6.1035293E-1,1.1079726E0,-2.2232728E-1,3.3145562E-1,2.8E2,1.3904194E0,1.3374665E0,2.2861148E-1,6.2954E4,-1.4045628E0,-8.550527E-2,-5.0159526E-1,-4.9439192E-1,-8.2312953E-1,9.51E0,9.1830873E-1,-1.283783E-1,1.0448878E-1,-8.244064E-2,9.201442E-2,-3.1300876E-1,5.469236E-3,-1.0596838E-1,-5.3670716E-2,5.912472E-2,8.40346E-3,-9.925058E-2,7.408493E-2,-5.7648897E-2,7.154283E-2,-1.1760568E-1,1.0126563E-1,-1.4711569E-1,1.069312E-1,-9.204614E-3],"split_indices":[14,10,4,1,0,14,11,7,0,31,29,5,14,30,0,10,21,20,26,21,29,10,0,0,0,0,0,0,0,0,0,0,0,0,0,0,0,0,0,0,0],"split_type":[0,0,0,0,0,0,0,0,0,0,0,0,0,0,0,0,0,0,0,0,0,0,0,0,0,0,0,0,0,0,0,0,0,0,0,0,0,0,0,0,0],"sum_hessian":[3.0521086E4,8.60321E3,2.1917877E4,8.578209E3,2.5000868E1,1.801428E4,3.9035964E3,8.575878E3,2.3307507E0,4.8187783E3,1.3195501E4,1.9877561E3,1.9158403E3,8.453704E3,1.2217386E2,1.5457661E3,3.2730122E3,1.1248095E4,1.9474061E3,1.2698824E3,7.178736E2,1.8497239E3,6.611643E1,8.451362E3,2.3417397E0,1.13177574E2,8.9962845E0,3.1938168E2,1.2263844E3,9.090759E2,2.3639363E3,1.2945717E3,9.953523E3,8.980308E2,1.0493754E3,2.8131296E2,9.885695E2,6.095462E2,1.0832738E2,1.6471268E3,2.0259708E2],"tree_param":{"num_deleted":"0","num_feature":"33","num_nodes":"41","size_leaf_vector":"1"}},{"base_weights":[-2.0256264E-3,1.0239536E0,-3.8791448E-1,1.0302393E0,-1.06843404E-1,-7.993053E-1,-1.3231027E-1,1.0314243E0,-2.0931633E-1,-9.392499E-1,-3.266423E-1,9.9563265E-1,-2.1041885E-1,1.0379896E0,5.810763E-1,-9.9722815E-1,5.825774E-1,4.1208223E-1,-9.0123856E-1,1.1455971E0,-1.1720493E-1,-7.6146114E-1,-1.9375954E-2,1.0386211E-1,-8.00823E-2,9.883165E-2,-2.3108433E-1,-1.030131E-1,5.3477198E-2,-1.1484843E-1,1.582684E-1,-1.1671881E-1,1.0298111E-1,4.533841E-2,-1.08441584E-1,1.009341E-1,1.7438035E-1,7.344668E-2,-9.9419154E-2,5.3388875E-2,-2.2419127E-2],"categories":[],"categories_nodes":[],"categories_segments":[],"categories_sizes":[],"default_left":[0,0,0,0,0,0,0,0,0,0,0,0,0,0,0,0,0,0,0,0,0,0,0,0,0,0,0,0,0,0,0,0,0,0,0,0,0,0,0,0,0],"id":24,"left_children":[1,3,5,7,-1,9,11,13,-1,15,17,19,21,23,25,27,29,31,33,35,-1,37,39,-1,-1,-1,-1,-1,-1,-1,-1,-1,-1,-1,-1,-1,-1,-1,-1,-1,-1],"loss_changes":[1.1346197E4,1.0412109E2,2.189755E3,3.106543E1,0E0,5.275747E2,1.1319641E3,2.2481445E1,0E0,5.4381885E2,7.748555E2,2.71847E2,1.2648187E3,9.766602E0,1.3708011E2,2.995298E2,3.9409418E2,7.806494E2,2.5523407E2,6.171869E1,0E0,1.0775791E3,1.0112195E3,0E0,0E0,0E0,0E0,0E0,0E0,0E0,0E0,0E0,0E0,0E0,0E0,0E0,0E0,0E0,0E0,0E0,0E0],"parents":[2147483647,0,0,1,1,2,2,3,3,5,5,6,6,7,7,9,9,10,10,11,11,12,12,13,13,14,14,15,15,16,16,17,17,18,18,19,19,21,21,22,22],"right_children":[2,4,6,8,-1,10,12,14,-1,16,18,20,22,24,26,28,30,32,34,36,-1,38,40,-1,-1,-1,-1,-1,-1,-1,-1,-1,-1,-1,-1,-1,-1,-1,-1,-1,-1],"split_conditions":[-3.6156354E0,5.767415E-1,3.1228277E-1,1.9602777E0,-1.06843404E-1,1.28E2,-2.150176E0,1.1079726E0,-2.0931633E-1,1.2022438E0,-1.0107267E0,5.660535E-1,-2.846243E-1,2.2861148E-1,1.05275266E-1,1.7888348E0,1.3465661E0,-7.6918113E-1,-1.5220747E0,5.5362684E-1,-1.1720493E-1,-1.4909433E0,-1.0702741E0,1.0386211E-1,-8.00823E-2,9.883165E-2,-2.3108433E-1,-1.030131E-1,5.3477198E-2,-1.1484843E-1,1.582684E-1,-1.1671881E-1,1.0298111E-1,4.533841E-2,-1.08441584E-1,1.009341E-1,1.7438035E-1,7.344668E-2,-9.9419154E-2,5.3388875E-2,-2.2419127E-2],"split_indices":[14,10,4,1,0,29,16,7,0,26,10,17,5,30,30,22,12,1,19,17,0,10,19,0,0,0,0,0,0,0,0,0,0,0,0,0,0,0,0,0,0],"split_type":[0,0,0,0,0,0,0,0,0,0,0,0,0,0,0,0,0,0,0,0,0,0,0,0,0,0,0,0,0,0,0,0,0,0,0,0,0,0,0,0,0],"sum_hessian":[2.8656238E4,7.8318125E3,2.0824426E4,7.8088613E3,2.295114E1,7.9794707E3,1.2844956E4,7.8065693E3,2.292075E0,6.1558726E3,1.8235979E3,8.311283E2,1.2013827E4,7.693113E3,1.13456635E2,5.9302866E3,2.2558618E2,7.9797345E2,1.0256245E3,7.777908E2,5.3337574E1,3.0920789E3,8.921748E3,7.6909062E3,2.206104E0,1.00028824E2,1.3427813E1,5.8059204E3,1.2436623E2,8.255144E1,1.4303474E2,2.2411562E2,5.738578E2,1.2199299E2,9.0363153E2,6.356852E2,1.4210556E2,4.1599832E2,2.6760806E3,2.4100117E3,6.511737E3],"tree_param":{"num_deleted":"0","num_feature":"33","num_nodes":"41","size_leaf_vector":"1"}},{"base_weights":[-1.8978532E-3,1.0179695E0,-3.6696547E-1,1.0242565E0,-1.05376475E-1,-7.83797E-1,-1.22304276E-1,1.0254823E0,-1.9825858E-1,-9.252293E-1,-3.1626126E-1,-3.6543895E-2,-1.0878104E0,1.0321324E0,5.7216775E-1,-9.835002E-1,5.523663E-1,3.8548154E-1,-8.856108E-1,9.68094E-1,-1.0877905E-1,-1.164471E0,-1.0638835E-1,1.0327815E-1,-7.781195E-2,-2.264943E-1,9.774712E-2,-1.0176338E-1,4.8712954E-2,-1.1300244E-1,1.4771676E-1,-1.1538625E-1,9.487155E-2,4.5683432E-2,-1.0773009E-1,1.1133718E-1,-1.1521367E-1,-6.711187E-2,6.0757906E-3,-1.0404604E-1,-1.2394559E-1],"categories":[],"categories_nodes":[],"categories_segments":[],"categories_sizes":[],"default_left":[0,0,0,0,0,0,0,0,0,0,0,0,0,0,0,0,0,0,0,0,0,0,0,0,0,0,0,0,0,0,0,0,0,0,0,0,0,0,0,0,0],"id":25,"left_children":[1,3,5,7,-1,9,11,13,-1,15,17,19,21,23,25,27,29,31,33,35,37,39,-1,-1,-1,-1,-1,-1,-1,-1,-1,-1,-1,-1,-1,-1,-1,-1,-1,-1,-1],"loss_changes":[1.0066114E4,9.390527E1,2.0303186E3,2.8222656E1,0E0,4.866211E2,1.0388687E3,2.0823242E1,0E0,4.872588E2,6.8422925E2,8.3643005E2,6.385498E-1,9.027832E0,1.22888E2,2.7351025E2,3.3635443E2,6.6644275E2,2.437486E2,2.3942688E2,1.025129E3,8.760071E-1,0E0,0E0,0E0,0E0,0E0,0E0,0E0,0E0,0E0,0E0,0E0,0E0,0E0,0E0,0E0,0E0,0E0,0E0,0E0],"parents":[2147483647,0,0,1,1,2,2,3,3,5,5,6,6,7,7,9,9,10,10,11,11,12,12,13,13,14,14,15,15,16,16,17,17,18,18,19,19,20,20,21,21],"right_children":[2,4,6,8,-1,10,12,14,-1,16,18,20,22,24,26,28,30,32,34,36,38,40,-1,-1,-1,-1,-1,-1,-1,-1,-1,-1,-1,-1,-1,-1,-1,-1,-1,-1,-1],"split_conditions":[-3.6156354E0,5.767415E-1,3.1228277E-1,1.9602777E0,-1.05376475E-1,1.28E2,2.8916657E-1,1.1079726E0,-1.9825858E-1,1.2022438E0,-1.0107267E0,-2.150176E0,1.54E0,2.2861148E-1,3.1120643E-1,1.7888348E0,1.3465661E0,-7.6918113E-1,-6.597237E-1,5.660535E-1,-2.846243E-1,7.413282E-1,-1.0638835E-1,1.0327815E-1,-7.781195E-2,-2.264943E-1,9.774712E-2,-1.0176338E-1,4.8712954E-2,-1.1300244E-1,1.4771676E-1,-1.1538625E-1,9.487155E-2,4.5683432E-2,-1.0773009E-1,1.1133718E-1,-1.1521367E-1,-6.711187E-2,6.0757906E-3,-1.0404604E-1,-1.2394559E-1],"split_indices":[14,10,4,1,0,29,30,7,0,26,10,16,29,30,26,22,12,1,21,17,5,4,0,0,0,0,0,0,0,0,0,0,0,0,0,0,0,0,0,0,0],"split_type":[0,0,0,0,0,0,0,0,0,0,0,0,0,0,0,0,0,0,0,0,0,0,0,0,0,0,0,0,0,0,0,0,0,0,0,0,0,0,0,0,0],"sum_hessian":[2.7034146E4,7.1257056E3,1.9908441E4,7.104651E3,2.1054676E1,7.362566E3,1.2545876E4,7.1024146E3,2.2364857E0,5.6518647E3,1.7107013E3,1.1523359E4,1.0225162E3,6.9984707E3,1.0394396E2,5.4377544E3,2.1411029E2,7.664045E2,9.442968E2,7.721391E2,1.0751221E4,2.3188841E2,7.9062775E2,6.9963916E3,2.079176E0,1.2419514E1,9.1524445E1,5.314707E3,1.230475E2,7.586869E1,1.382416E2,2.0502185E2,5.613826E2,1.17817E2,8.264798E2,7.2306946E2,4.906968E1,2.4898015E3,8.261419E3,9.298478E1,1.3890364E2],"tree_param":{"num_deleted":"0","num_feature":"33","num_nodes":"41","size_leaf_vector":"1"}},{"base_weights":[-1.7863094E-3,1.012332E0,-3.454869E-1,1.0186226E0,-1.0399485E-1,-9.1766655E-1,-1.7333405E-1,1.0198904E0,-1.8858948E-1,-9.6918833E-1,4.9134272E-1,1.855854E-1,-4.207354E-1,1.0266253E0,5.6350017E-1,-2.8209494E-2,-1.053155E-1,-1.1803553E-1,1.281501E-1,-5.5506724E-1,3.644073E-1,-6.023371E-1,3.7754336E-1,1.0272934E-1,-7.5622156E-2,9.012255E-2,-2.811955E-1,-1.1872987E-1,9.070827E-2,1.1272378E-2,-1.0600702E-1,4.3840345E-2,-1.5482241E-1,4.1530058E-2,-7.8448415E-2,-1.2348922E-1,6.665256E-2],"categories":[],"categories_nodes":[],"categories_segments":[],"categories_sizes":[],"default_left":[0,0,0,0,0,0,0,0,0,0,0,0,0,0,0,0,0,0,0,0,0,0,0,0,0,0,0,0,0,0,0,0,0,0,0,0,0],"id":26,"left_children":[1,3,5,7,-1,9,11,13,-1,15,17,19,21,23,25,27,-1,-1,-1,29,31,33,35,-1,-1,-1,-1,-1,-1,-1,-1,-1,-1,-1,-1,-1,-1],"loss_changes":[8.926074E3,8.474756E1,1.8838584E3,2.572168E1,0E0,3.2159644E2,1.3057655E3,1.9280762E1,0E0,3.3716943E2,2.0850656E2,7.9494275E2,1.2621261E3,8.358887E0,1.1216854E2,3.812179E2,0E0,0E0,0E0,3.9380814E2,6.848412E2,1.314855E3,7.5281934E2,0E0,0E0,0E0,0E0,0E0,0E0,0E0,0E0,0E0,0E0,0E0,0E0,0E0,0E0],"parents":[2147483647,0,0,1,1,2,2,3,3,5,5,6,6,7,7,9,9,10,10,11,11,12,12,13,13,14,14,15,15,19,19,20,20,21,21,22,22],"right_children":[2,4,6,8,-1,10,12,14,-1,16,18,20,22,24,26,28,-1,-1,-1,30,32,34,36,-1,-1,-1,-1,-1,-1,-1,-1,-1,-1,-1,-1,-1,-1],"split_conditions":[-3.6156354E0,5.767415E-1,-2.9450953E-1,1.9602777E0,-1.0399485E-1,3.0202103E0,-4.254906E-1,1.1079726E0,-1.8858948E-1,-1.7859976E0,2.3929963E-1,2.7105737E-1,6.224646E-1,2.2861148E-1,6.2954E4,1.4104919E-1,-1.053155E-1,-1.1803553E-1,1.281501E-1,-1.9638966E0,1.2675318E0,-1.4724427E0,6.345E4,1.0272934E-1,-7.5622156E-2,9.012255E-2,-2.811955E-1,-1.1872987E-1,9.070827E-2,1.1272378E-2,-1.0600702E-1,4.3840345E-2,-1.5482241E-1,4.1530058E-2,-7.8448415E-2,-1.2348922E-1,6.665256E-2],"split_indices":[14,10,4,1,0,7,14,7,0,14,30,31,20,30,0,23,0,0,0,3,31,19,0,0,0,0,0,0,0,0,0,0,0,0,0,0,0],"split_type":[0,0,0,0,0,0,0,0,0,0,0,0,0,0,0,0,0,0,0,0,0,0,0,0,0,0,0,0,0,0,0,0,0,0,0,0,0],"sum_hessian":[2.560694E4,6.481315E3,1.9125623E4,6.462011E3,1.9303942E1,4.422466E3,1.4703157E4,6.4598403E3,2.1706734E0,4.26676E3,1.5570602E2,5.999535E3,8.703622E3,6.364668E3,9.517243E1,3.4965536E2,3.9171045E3,4.9816963E1,1.0588905E2,1.1663967E3,4.833138E3,7.090776E3,1.6128467E3,6.3627075E3,1.9605448E0,8.718254E1,7.9898915E0,1.5602599E2,1.9362938E2,5.025827E2,6.63814E2,4.65386E3,1.7927829E2,1.0763019E3,6.014474E3,2.4462694E2,1.3682197E3],"tree_param":{"num_deleted":"0","num_feature":"33","num_nodes":"37","size_leaf_vector":"1"}},{"base_weights":[-1.8971822E-3,1.0067334E0,-3.26542E-1,1.013028E0,-1.0268294E-1,-9.0997493E-1,-1.6165844E-1,1.0211185E0,4.8787537E-1,-9.616742E-1,4.771236E-1,-7.522517E-2,-1.0641012E-1,1.021807E0,-7.350688E-2,-2.1817315E0,9.599058E-1,-2.8359815E-2,-1.0480215E-1,-1.16133094E-1,1.2397804E-1,-1.2426337E0,-2.2078125E-2,1.0247814E-1,8.08122E-2,-4.5244572E-1,-1.2014683E-1,1.01754405E-1,7.545414E-2,-1.1702682E-1,8.500257E-2,-1.538366E-1,-1.1552622E-1,2.5516693E-2,-2.4648955E-2],"categories":[],"categories_nodes":[],"categories_segments":[],"categories_sizes":[],"default_left":[0,0,0,0,0,0,0,0,0,0,0,0,0,0,0,0,0,0,0,0,0,0,0,0,0,0,0,0,0,0,0,0,0,0,0],"id":27,"left_children":[1,3,5,7,-1,9,11,13,15,17,19,21,-1,23,-1,25,27,29,-1,-1,-1,31,33,-1,-1,-1,-1,-1,-1,-1,-1,-1,-1,-1,-1],"loss_changes":[7.9290117E3,7.651416E1,1.762068E3,2.4478027E1,0E0,2.8989404E2,1.1140448E3,7.7495117E0,1.1689797E2,3.1357373E2,1.8349564E2,8.08787E2,0E0,2.8496094E0,0E0,2.6700912E1,1.5679932E-1,3.325573E2,0E0,0E0,0E0,1.288916E1,7.758747E2,0E0,0E0,0E0,0E0,0E0,0E0,0E0,0E0,0E0,0E0,0E0,0E0],"parents":[2147483647,0,0,1,1,2,2,3,3,5,5,6,6,7,7,8,8,9,9,10,10,11,11,13,13,15,15,16,16,17,17,21,21,22,22],"right_children":[2,4,6,8,-1,10,12,14,16,18,20,22,-1,24,-1,26,28,30,-1,-1,-1,32,34,-1,-1,-1,-1,-1,-1,-1,-1,-1,-1,-1,-1],"split_conditions":[-3.6156354E0,5.767415E-1,-2.9450953E-1,1.1079726E0,-1.0268294E-1,3.0202103E0,2.8916657E-1,2.2861148E-1,3.1120643E-1,-1.7859976E0,2.3929963E-1,-1.0209606E0,-1.0641012E-1,1.7391944E0,-7.350688E-2,-1.4160796E0,3.0003E4,1.4104919E-1,-1.0480215E-1,-1.16133094E-1,1.2397804E-1,-8.069166E-1,-4.254906E-1,1.0247814E-1,8.08122E-2,-4.5244572E-1,-1.2014683E-1,1.01754405E-1,7.545414E-2,-1.1702682E-1,8.500257E-2,-1.538366E-1,-1.1552622E-1,2.5516693E-2,-2.4648955E-2],"split_indices":[14,10,4,7,0,7,30,30,26,14,30,24,0,16,0,12,0,23,0,0,0,14,14,0,0,0,0,0,0,0,0,0,0,0,0],"split_type":[0,0,0,0,0,0,0,0,0,0,0,0,0,0,0,0,0,0,0,0,0,0,0,0,0,0,0,0,0,0,0,0,0,0,0],"sum_hessian":[2.421266E4,5.8951304E3,1.8317531E4,5.8774395E3,1.7690926E1,4.0350767E3,1.4282454E4,5.7873354E3,9.010425E1,3.8903828E3,1.446938E2,1.3035076E4,1.2473773E3,5.7854854E3,1.8497792E0,1.2993938E1,7.7110306E1,3.2955905E2,3.5608237E3,4.5792564E1,9.890124E1,5.6661597E2,1.2468461E4,5.7023184E3,8.316709E1,2.766572E0,1.0227366E1,5.7123116E1,1.9987194E1,1.4314156E2,1.8641748E2,1.2543618E2,4.4117978E2,5.5775903E3,6.89087E3],"tree_param":{"num_deleted":"0","num_feature":"33","num_nodes":"35","size_leaf_vector":"1"}},{"base_weights":[-1.8028471E-3,9.614494E-1,-3.205688E-1,-1.104598E-1,9.8935205E-1,-8.995371E-1,-1.6666083E-1,1.0030905E0,-1.3011818E-1,1.6199315E-1,-9.815831E-1,8.691213E-2,-4.5589635E-1,1.010408E0,-1.513244E-1,-1.05415635E-1,8.785461E-1,-1.0472484E0,2.057461E-1,1.6355772E-1,-1.344235E0,5.7098025E-1,-5.701686E-1,-1.2291353E-1,1.0147896E-1,-1.0677319E-1,1.09205976E-1,-1.14476584E-1,-1.0429305E-1,-1.08074345E-1,1.18165396E-1,2.7824163E-2,-7.484313E-2,-1.2782753E-1,-3.0072087E-1,1.1468538E-1,-1.11571625E-1,-1.0359339E-1,-1.7301267E-2],"categories":[],"categories_nodes":[],"categories_segments":[],"categories_sizes":[],"default_left":[0,0,0,0,0,0,0,0,0,0,0,0,0,0,0,0,0,0,0,0,0,0,0,0,0,0,0,0,0,0,0,0,0,0,0,0,0,0,0],"id":28,"left_children":[1,3,5,-1,7,9,11,13,-1,15,17,19,21,23,-1,-1,25,27,29,31,33,35,37,-1,-1,-1,-1,-1,-1,-1,-1,-1,-1,-1,-1,-1,-1,-1,-1],"loss_changes":[7.0896562E3,3.320542E2,1.545727E3,0E0,1.7957568E2,3.1744556E2,1.0052953E3,1.0522998E2,0E0,2.294406E2,2.6388208E2,8.014335E2,7.516859E2,5.635791E1,0E0,0E0,6.996214E1,1.550293E-1,2.2483635E2,7.2542444E2,3.6895264E1,6.2456946E2,1.0657563E3,0E0,0E0,0E0,0E0,0E0,0E0,0E0,0E0,0E0,0E0,0E0,0E0,0E0,0E0,0E0,0E0],"parents":[2147483647,0,0,1,1,2,2,4,4,5,5,6,6,7,7,9,9,10,10,11,11,12,12,13,13,16,16,17,17,18,18,19,19,20,20,21,21,22,22],"right_children":[2,4,6,-1,8,10,12,14,-1,16,18,20,22,24,-1,-1,26,28,30,32,34,36,38,-1,-1,-1,-1,-1,-1,-1,-1,-1,-1,-1,-1,-1,-1,-1,-1],"split_conditions":[-2.0208135E0,-4.8604634E-1,-2.7838778E-1,-1.104598E-1,8.01032E-1,-1.6016932E0,-4.3405853E-2,1.63692E3,-1.3011818E-1,1.354425E0,1.8243738E0,1.2675318E0,-1.3385137E0,-5.3077763E-1,-1.513244E-1,-1.05415635E-1,2.3929963E-1,-1.7859976E0,1.66793E5,1.2776982E0,2.983501E0,2.778639E-1,1.074045E0,-1.2291353E-1,1.0147896E-1,-1.0677319E-1,1.09205976E-1,-1.14476584E-1,-1.0429305E-1,-1.08074345E-1,1.18165396E-1,2.7824163E-2,-7.484313E-2,-1.2782753E-1,